{"learner":{"attributes":{"best_iteration":"249","best_ntree_limit":"250","scikit_learn":"{\"n_estimators\": 250, \"objective\": \"reg:squarederror\", \"max_depth\": 5, \"max_leaves\": null, \"max_bin\": null, \"grow_policy\": null, \"learning_rate\": 0.2, \"verbosity\": null, \"booster\": null, \"tree_method\": null, \"gamma\": null, \"min_child_weight\": null, \"max_delta_step\": null, \"subsample\": null, \"sampling_method\": null, \"colsample_bytree\": null, \"colsample_bylevel\": null, \"colsample_bynode\": null, \"reg_alpha\": null, \"reg_lambda\": null, \"scale_pos_weight\": null, \"base_score\": null, \"missing\": NaN, \"num_parallel_tree\": null, \"random_state\": null, \"n_jobs\": null, \"monotone_constraints\": null, \"interaction_constraints\": null, \"importance_type\": null, \"gpu_id\": null, \"validate_parameters\": null, \"predictor\": null, \"enable_categorical\": false, \"feature_types\": null, \"max_cat_to_onehot\": null, \"max_cat_threshold\": null, \"eval_metric\": null, \"early_stopping_rounds\": null, \"callbacks\": null, \"_estimator_type\": \"regressor\"}"},"feature_names":[],"feature_types":[],"gradient_booster":{"model":{"gbtree_model_param":{"num_parallel_tree":"1","num_trees":"250","size_leaf_vector":"0"},"tree_info":[0,0,0,0,0,0,0,0,0,0,0,0,0,0,0,0,0,0,0,0,0,0,0,0,0,0,0,0,0,0,0,0,0,0,0,0,0,0,0,0,0,0,0,0,0,0,0,0,0,0,0,0,0,0,0,0,0,0,0,0,0,0,0,0,0,0,0,0,0,0,0,0,0,0,0,0,0,0,0,0,0,0,0,0,0,0,0,0,0,0,0,0,0,0,0,0,0,0,0,0,0,0,0,0,0,0,0,0,0,0,0,0,0,0,0,0,0,0,0,0,0,0,0,0,0,0,0,0,0,0,0,0,0,0,0,0,0,0,0,0,0,0,0,0,0,0,0,0,0,0,0,0,0,0,0,0,0,0,0,0,0,0,0,0,0,0,0,0,0,0,0,0,0,0,0,0,0,0,0,0,0,0,0,0,0,0,0,0,0,0,0,0,0,0,0,0,0,0,0,0,0,0,0,0,0,0,0,0,0,0,0,0,0,0,0,0,0,0,0,0,0,0,0,0,0,0,0,0,0,0,0,0,0,0,0,0,0,0,0,0,0,0,0,0,0,0,0,0,0,0],"trees":[{"base_weights":[6.3410107E1,6.081558E1,8.120148E1,5.1052204E1,6.272288E1,8.17715E1,6.981791E1,4.3563393E1,5.3892708E1,5.8897934E1,6.6129265E1,7.711561E1,8.26409E1,7.017224E1,4.6407932E1,4.4597794E1,1.2993254E1,5.039E1,5.9657223E1,5.629256E1,6.5496956E1,6.486634E1,7.306664E1,7.778694E1,6.279338E1,8.282166E1,7.365852E1,6.645342E1,7.154142E1,4.82592E1,2.3196428E1,4.0669197E1,4.9527874E1,1.50251045E1,7.713097E0,5.1302975E1,2.9471697E1,6.223836E1,5.6117382E1,5.0264328E1,5.8376118E1,6.4452065E1,7.3859146E1,6.3924484E1,7.404467E1,7.094368E1,7.5458916E1,7.808866E1,5.6471123E1,5.244529E1,6.5657135E1,8.0971375E1,8.319326E1,7.259832E1,7.771504E1,6.3280746E1,7.301653E1,8.058145E1,7.09825E1,5.296694E1,4.525971E1,3.42E1,9.75E0],"categories":[],"categories_nodes":[],"categories_segments":[],"categories_sizes":[],"default_left":[1,1,1,1,1,1,1,1,1,1,1,1,1,1,1,1,1,1,1,1,1,1,1,1,1,1,1,1,1,1,1,0,0,0,0,0,0,0,0,0,0,0,0,0,0,0,0,0,0,0,0,0,0,0,0,0,0,0,0,0,0,0,0],"id":0,"left_children":[1,3,5,7,9,11,13,15,17,19,21,23,25,27,29,31,33,35,37,39,41,43,45,47,49,51,53,55,57,59,61,-1,-1,-1,-1,-1,-1,-1,-1,-1,-1,-1,-1,-1,-1,-1,-1,-1,-1,-1,-1,-1,-1,-1,-1,-1,-1,-1,-1,-1,-1,-1,-1],"loss_changes":[1.7850573E8,6.284493E7,3.188224E6,1.173056E7,3.678208E7,1.89056E6,1.91488E5,4.796E6,8.071296E6,2.286336E7,1.3080064E7,7.0432E5,6.35392E5,1.12992E5,1.40491875E4,2.839712E6,5.316175E4,4.74912E6,1.377472E6,1.1973888E7,3.284864E6,1.0916864E7,1.162624E6,4.48736E5,9.4587E4,2.59584E5,2.7904E4,1.25248E5,7.9608E4,2.206125E3,3.8093945E3,0E0,0E0,0E0,0E0,0E0,0E0,0E0,0E0,0E0,0E0,0E0,0E0,0E0,0E0,0E0,0E0,0E0,0E0,0E0,0E0,0E0,0E0,0E0,0E0,0E0,0E0,0E0,0E0,0E0,0E0,0E0,0E0],"parents":[2147483647,0,0,1,1,2,2,3,3,4,4,5,5,6,6,7,7,8,8,9,9,10,10,11,11,12,12,13,13,14,14,15,15,16,16,17,17,18,18,19,19,20,20,21,21,22,22,23,23,24,24,25,25,26,26,27,27,28,28,29,29,30,30],"right_children":[2,4,6,8,10,12,14,16,18,20,22,24,26,28,30,32,34,36,38,40,42,44,46,48,50,52,54,56,58,60,62,-1,-1,-1,-1,-1,-1,-1,-1,-1,-1,-1,-1,-1,-1,-1,-1,-1,-1,-1,-1,-1,-1,-1,-1,-1,-1,-1,-1,-1,-1,-1,-1],"split_conditions":[5E-1,5E-1,5E-1,5E-1,5E-1,5E-1,5E-1,5E-1,5E-1,5E-1,5E-1,5E-1,5E-1,5E-1,5E-1,5E-1,5E-1,5E-1,3.172586E-1,5E-1,5E-1,5E-1,5E-1,5E-1,5E-1,2.115E-1,5E-1,5E-1,7.7586204E-2,1.4741379E-1,2.4344827E-1,8.13384E0,9.905575E0,3.0050209E0,1.5426195E0,1.0260595E1,5.8943396E0,1.2447673E1,1.1223476E1,1.0052866E1,1.1675223E1,1.2890413E1,1.477183E1,1.2784897E1,1.4808934E1,1.4188736E1,1.5091784E1,1.5617732E1,1.1294225E1,1.04890585E1,1.3131427E1,1.6194275E1,1.6638653E1,1.4519664E1,1.5543009E1,1.265615E1,1.4603307E1,1.6116291E1,1.41965E1,1.0593389E1,9.051942E0,6.84E0,1.95E0],"split_indices":[86,75,51,100,58,72,74,42,58,61,61,48,48,72,64,58,2,42,0,48,40,11,24,12,75,0,60,10,0,0,0,0,0,0,0,0,0,0,0,0,0,0,0,0,0,0,0,0,0,0,0,0,0,0,0,0,0,0,0,0,0,0,0],"split_type":[0,0,0,0,0,0,0,0,0,0,0,0,0,0,0,0,0,0,0,0,0,0,0,0,0,0,0,0,0,0,0,0,0,0,0,0,0,0,0,0,0,0,0,0,0,0,0,0,0,0,0,0,0,0,0,0,0,0,0,0,0,0,0],"sum_hessian":[3.867189E6,3.375013E6,4.92176E5,5.51573E5,2.82344E6,4.687E5,2.3476E4,1.51684E5,3.99889E5,1.330015E6,1.493425E6,7.3764E4,3.94936E5,2.3124E4,3.52E2,1.46719E5,4.965E3,2.4875E5,1.51139E5,9.53551E5,3.76464E5,1.263433E6,2.29992E5,7.0457E4,3.307E3,3.87137E5,7.799E3,6.236E3,1.6888E4,3.25E2,2.7E1,8.1658E4,6.5061E4,3.584E3,1.381E3,2.38346E5,1.0404E4,8.7396E4,6.3743E4,2.44931E5,7.0862E5,3.34656E5,4.1808E4,1.145856E6,1.17577E5,1.21871E5,1.08121E5,6.9471E4,9.86E2,7.21E2,2.586E3,6.4783E4,3.22354E5,6.198E3,1.601E3,4.211E3,2.025E3,9.75E2,1.5913E4,1.2E2,2.05E2,1.4E1,1.3E1],"tree_param":{"num_deleted":"0","num_feature":"103","num_nodes":"63","size_leaf_vector":"0"}},{"base_weights":[5.072818E1,4.865251E1,6.496158E1,3.947944E1,4.998177E1,6.5417435E1,5.585799E1,3.552759E1,4.3542248E1,4.673449E1,5.312035E1,6.1693172E1,6.611288E1,5.6140278E1,3.7206898E1,2.7848888E1,3.8619705E1,3.962245E1,4.529396E1,4.4709015E1,5.125029E1,5.0066353E1,5.4728355E1,6.2229935E1,5.0241844E1,6.6257416E1,5.8930676E1,5.3200085E1,5.7345474E1,3.8667625E1,1.887107E1,2.5151733E1,5.089799E1,3.3627666E1,3.9740788E1,4.2252087E1,3.61507E1,4.4883064E1,5.406664E1,3.9037598E1,4.6770473E1,4.9130524E1,5.5753742E1,4.5138344E1,5.083305E1,5.3112408E1,5.7404926E1,6.2402897E1,3.634121E1,4.197076E1,5.253078E1,6.412453E1,6.6539856E1,5.8081E1,6.218174E1,4.8016296E1,5.3969723E1,5.6284336E1,6.3689163E1,3.6474907E1,4.401214E1,2.7236876E1,7.123077E0],"categories":[],"categories_nodes":[],"categories_segments":[],"categories_sizes":[],"default_left":[1,1,1,1,1,1,1,1,1,1,1,1,1,1,1,1,1,1,1,1,1,1,1,1,1,1,1,1,1,1,1,0,0,0,0,0,0,0,0,0,0,0,0,0,0,0,0,0,0,0,0,0,0,0,0,0,0,0,0,0,0,0,0],"id":1,"left_children":[1,3,5,7,9,11,13,15,17,19,21,23,25,27,29,31,33,35,37,39,41,43,45,47,49,51,53,55,57,59,61,-1,-1,-1,-1,-1,-1,-1,-1,-1,-1,-1,-1,-1,-1,-1,-1,-1,-1,-1,-1,-1,-1,-1,-1,-1,-1,-1,-1,-1,-1,-1,-1],"loss_changes":[1.142487E8,4.1150976E7,2.038784E6,6.85696E6,3.0041088E7,1.209984E6,1.21528E5,5.140544E6,1.444384E6,1.3249792E7,7.35872E6,4.50304E5,4.06016E5,7.8888E4,8.724906E3,3.863704E6,8.6264E5,5.92456E5,5.22272E5,1.1692032E7,4.279936E6,1.951232E6,4.243968E6,3.13248E5,6.0423E4,2.28864E5,1.7938E4,2.4288E4,1.0674E5,2.2150625E3,2.5578682E3,0E0,0E0,0E0,0E0,0E0,0E0,0E0,0E0,0E0,0E0,0E0,0E0,0E0,0E0,0E0,0E0,0E0,0E0,0E0,0E0,0E0,0E0,0E0,0E0,0E0,0E0,0E0,0E0,0E0,0E0,0E0,0E0],"parents":[2147483647,0,0,1,1,2,2,3,3,4,4,5,5,6,6,7,7,8,8,9,9,10,10,11,11,12,12,13,13,14,14,15,15,16,16,17,17,18,18,19,19,20,20,21,21,22,22,23,23,24,24,25,25,26,26,27,27,28,28,29,29,30,30],"right_children":[2,4,6,8,10,12,14,16,18,20,22,24,26,28,30,32,34,36,38,40,42,44,46,48,50,52,54,56,58,60,62,-1,-1,-1,-1,-1,-1,-1,-1,-1,-1,-1,-1,-1,-1,-1,-1,-1,-1,-1,-1,-1,-1,-1,-1,-1,-1,-1,-1,-1,-1,-1,-1],"split_conditions":[5E-1,5E-1,5E-1,5E-1,5E-1,5E-1,5E-1,5E-1,5E-1,5E-1,5E-1,5E-1,5E-1,5E-1,5E-1,5E-1,5E-1,5E-1,5E-1,5E-1,5E-1,5E-1,5E-1,5E-1,5E-1,5E-1,5E-1,5E-1,5E-1,5E-1,2.6496553E-1,5.030347E0,1.0179599E1,6.7255335E0,7.948158E0,8.4504175E0,7.23014E0,8.976613E0,1.0813328E1,7.8075194E0,9.3540945E0,9.826105E0,1.1150748E1,9.027669E0,1.016661E1,1.0622481E1,1.1480986E1,1.2480579E1,7.268242E0,8.394153E0,1.0506156E1,1.2824905E1,1.3307971E1,1.16162E1,1.2436348E1,9.603259E0,1.0793944E1,1.1256867E1,1.2737833E1,7.2949815E0,8.802428E0,5.4473753E0,1.4246154E0],"split_indices":[86,100,51,58,58,72,74,48,75,61,83,48,48,27,64,52,101,2,11,48,24,75,24,41,75,27,60,65,10,10,0,0,0,0,0,0,0,0,0,0,0,0,0,0,0,0,0,0,0,0,0,0,0,0,0,0,0,0,0,0,0,0,0],"split_type":[0,0,0,0,0,0,0,0,0,0,0,0,0,0,0,0,0,0,0,0,0,0,0,0,0,0,0,0,0,0,0,0,0,0,0,0,0,0,0,0,0,0,0,0,0,0,0,0,0,0,0,0,0,0,0,0,0,0,0,0,0,0,0],"sum_hessian":[3.867189E6,3.375013E6,4.92176E5,4.27172E5,2.947841E6,4.687E5,2.3476E4,2.16548E5,2.10624E5,1.44884E6,1.499001E6,7.3764E4,3.94936E5,2.3124E4,3.52E2,6.217E4,1.54378E5,6.5061E4,1.45563E5,1.000221E6,4.48619E5,5.17042E5,9.81959E5,7.0457E4,3.307E3,3.87137E5,7.799E3,6.736E3,1.6388E4,3.25E2,2.7E1,5.5659E4,6.511E3,2.8317E4,1.26061E5,3.7014E4,2.8047E4,1.39056E5,6.507E3,2.66648E5,7.33573E5,3.05046E5,1.43573E5,6.9619E4,4.47423E5,6.12307E5,3.69652E5,6.9988E4,4.69E2,7.21E2,2.586E3,4.5297E4,3.4184E5,6.198E3,1.601E3,8.79E2,5.857E3,1.4048E4,2.34E3,2.36E2,8.9E1,1.5E1,1.2E1],"tree_param":{"num_deleted":"0","num_feature":"103","num_nodes":"63","size_leaf_vector":"0"}},{"base_weights":[4.058262E1,3.892205E1,5.1969585E1,3.1946339E1,4.028478E1,5.233414E1,4.468926E1,3.2285168E1,-2.1069632E0,4.1608406E1,3.6247116E1,4.9355064E1,5.289043E1,4.1381664E1,4.5977024E1,3.2870903E1,1.2055913E1,-6.8030906E0,8.232395E0,4.568331E1,3.931108E1,3.3534374E1,3.8610508E1,4.9741066E1,3.5772724E1,5.1490192E1,5.3431976E1,3.9061077E1,4.625508E1,5.3322384E1,4.5523647E1,3.4646194E1,2.8571524E1,5.3661847E0,1.5247564E1,-4.6549544E0,-1.0837603E1,1.6240023E1,3.7508564E0,4.338183E1,4.807076E1,3.6838768E1,4.148785E1,3.395588E1,1.3565968E1,3.4332188E1,3.9394516E1,5.0037514E1,3.4168377E1,3.1491636E1,3.920004E1,4.768366E1,5.1917946E1,5.1373905E1,5.368698E1,3.0398441E1,4.0156723E1,4.331856E1,4.9888283E1,4.8075085E1,5.514095E1,4.210012E1,4.6373604E1],"categories":[],"categories_nodes":[],"categories_segments":[],"categories_sizes":[],"default_left":[1,1,1,1,1,1,1,1,1,1,1,1,1,1,1,1,1,1,1,1,1,1,1,1,1,1,1,1,1,1,1,0,0,0,0,0,0,0,0,0,0,0,0,0,0,0,0,0,0,0,0,0,0,0,0,0,0,0,0,0,0,0,0],"id":2,"left_children":[1,3,5,7,9,11,13,15,17,19,21,23,25,27,29,31,33,35,37,39,41,43,45,47,49,51,53,55,57,59,61,-1,-1,-1,-1,-1,-1,-1,-1,-1,-1,-1,-1,-1,-1,-1,-1,-1,-1,-1,-1,-1,-1,-1,-1,-1,-1,-1,-1,-1,-1,-1,-1],"loss_changes":[7.312179E7,3.2081408E7,1.303936E6,6.364224E6,1.5087616E7,7.74016E5,9.8092E4,6.470912E6,2.6395212E5,1.9904256E7,4.467904E6,3.84976E5,2.96832E5,7.271E4,5.382E4,4.050176E6,3.280875E5,3.234561E4,6.087435E4,4.20992E6,7.316352E6,2.731264E6,1.248128E6,3.29376E5,2.8727E4,1.76928E5,1.46688E5,4.1205E4,2.04565E4,6.66275E3,4.4354E4,0E0,0E0,0E0,0E0,0E0,0E0,0E0,0E0,0E0,0E0,0E0,0E0,0E0,0E0,0E0,0E0,0E0,0E0,0E0,0E0,0E0,0E0,0E0,0E0,0E0,0E0,0E0,0E0,0E0,0E0,0E0,0E0],"parents":[2147483647,0,0,1,1,2,2,3,3,4,4,5,5,6,6,7,7,8,8,9,9,10,10,11,11,12,12,13,13,14,14,15,15,16,16,17,17,18,18,19,19,20,20,21,21,22,22,23,23,24,24,25,25,26,26,27,27,28,28,29,29,30,30],"right_children":[2,4,6,8,10,12,14,16,18,20,22,24,26,28,30,32,34,36,38,40,42,44,46,48,50,52,54,56,58,60,62,-1,-1,-1,-1,-1,-1,-1,-1,-1,-1,-1,-1,-1,-1,-1,-1,-1,-1,-1,-1,-1,-1,-1,-1,-1,-1,-1,-1,-1,-1,-1,-1],"split_conditions":[5E-1,5E-1,5E-1,5E-1,5E-1,5E-1,5E-1,5E-1,5E-1,5E-1,5E-1,5E-1,5E-1,5E-1,7.7586204E-2,5E-1,5E-1,3.0886206E-1,1.2315518E-1,5E-1,5E-1,5E-1,5E-1,5E-1,5E-1,1.5177587E-1,5E-1,5E-1,5E-1,5E-1,5E-1,6.929239E0,5.714305E0,1.073237E0,3.0495129E0,-9.309909E-1,-2.1675205E0,3.2480047E0,7.501713E-1,8.676366E0,9.614152E0,7.3677535E0,8.29757E0,6.791176E0,2.7131937E0,6.8664374E0,7.8789034E0,1.0007503E1,6.8336754E0,6.2983274E0,7.840008E0,9.536732E0,1.038359E1,1.0274781E1,1.0737396E1,6.0796885E0,8.031344E0,8.6637125E0,9.977656E0,9.615017E0,1.102819E1,8.420024E0,9.274721E0],"split_indices":[86,75,51,45,15,72,72,42,61,12,58,74,60,10,0,2,100,0,0,24,58,42,100,12,100,0,27,75,27,3,27,0,0,0,0,0,0,0,0,0,0,0,0,0,0,0,0,0,0,0,0,0,0,0,0,0,0,0,0,0,0,0,0],"split_type":[0,0,0,0,0,0,0,0,0,0,0,0,0,0,0,0,0,0,0,0,0,0,0,0,0,0,0,0,0,0,0,0,0,0,0,0,0,0,0,0,0,0,0,0,0,0,0,0,0,0,0,0,0,0,0,0,0,0,0,0,0,0,0],"sum_hessian":[3.867189E6,3.375013E6,4.92176E5,5.51573E5,2.82344E6,4.687E5,2.3476E4,5.46139E5,5.434E3,2.126366E6,6.97074E5,7.3764E4,3.94936E5,6.588E3,1.6888E4,5.3077E5,1.5369E4,3.737E3,1.697E3,7.66594E5,1.359772E6,3.24557E5,3.72517E5,7.1723E4,2.041E3,1.10171E5,2.84765E5,4.469E3,2.119E3,9.75E2,1.5913E4,3.7565E5,1.5512E5,4.965E3,1.0404E4,2.44E3,1.297E3,6.08E2,1.089E3,3.90334E5,3.7626E5,6.36674E5,7.23098E5,3.17847E5,6.71E3,5.7699E4,3.14818E5,7.0381E4,1.342E3,9.12E2,1.129E3,1.1141E4,9.903E4,3.1416E4,2.53349E5,5.05E2,3.964E3,1.179E3,9.4E2,2.58E2,7.17E2,3.175E3,1.2738E4],"tree_param":{"num_deleted":"0","num_feature":"103","num_nodes":"63","size_leaf_vector":"0"}},{"base_weights":[3.2466152E1,3.1137665E1,4.157596E1,2.451924E1,3.2096733E1,3.9852135E1,4.2627777E1,2.4939728E1,3.4791515E0,2.9892492E1,3.4227192E1,3.701703E1,4.094835E1,4.041619E1,4.2800625E1,2.2406214E1,2.7443703E1,5.0775948E0,-1.5885627E0,3.014917E1,8.900076E-1,3.3369106E1,3.8407784E1,3.726525E1,2.2566027E1,3.6399265E1,4.119796E1,4.0544254E1,3.378304E1,4.2390064E1,4.323673E1,2.27055E1,-6.556364E0,2.8344307E1,2.3212492E1,1.5997778E0,6.8108034E0,-1.9038886E0,2.0777477E1,3.0524813E1,1.375965E1,8.194041E0,-5.0910873E0,3.2816452E1,3.8873283E1,3.870902E1,3.4084038E1,3.7496883E1,2.3931435E1,2.5452429E1,1.6044472E1,3.2913383E1,3.9668423E1,4.1261677E1,3.1004044E1,4.0735687E1,3.719064E1,3.1698454E1,4.4109104E1,3.897203E1,4.246139E1,4.1286354E1,4.3381157E1],"categories":[],"categories_nodes":[],"categories_segments":[],"categories_sizes":[],"default_left":[1,1,1,1,1,1,1,1,1,1,1,1,1,1,1,1,1,1,1,1,1,1,1,1,1,1,1,1,1,1,1,0,0,0,0,0,0,0,0,0,0,0,0,0,0,0,0,0,0,0,0,0,0,0,0,0,0,0,0,0,0,0,0],"id":3,"left_children":[1,3,5,7,9,11,13,15,17,19,21,23,25,27,29,31,33,35,37,39,41,43,45,47,49,51,53,55,57,59,61,-1,-1,-1,-1,-1,-1,-1,-1,-1,-1,-1,-1,-1,-1,-1,-1,-1,-1,-1,-1,-1,-1,-1,-1,-1,-1,-1,-1,-1,-1,-1,-1],"loss_changes":[4.6800384E7,2.142208E7,8.90688E5,3.779168E6,1.3842432E7,5.78176E5,1.15136E5,2.656224E6,6.781695E4,1.0785536E7,5.376128E6,1.8576E5,1.51248E5,1.7468E4,4.8928E4,1.804656E6,8.01968E5,3.834992E4,1.4201161E4,8.841088E6,5.55336E5,3.781888E6,3.31168E5,1.57048E5,1.6175406E4,7.8522E4,8.152E4,1.2448E4,7.7716875E3,3.3968E4,3.6928E4,0E0,0E0,0E0,0E0,0E0,0E0,0E0,0E0,0E0,0E0,0E0,0E0,0E0,0E0,0E0,0E0,0E0,0E0,0E0,0E0,0E0,0E0,0E0,0E0,0E0,0E0,0E0,0E0,0E0,0E0,0E0,0E0],"parents":[2147483647,0,0,1,1,2,2,3,3,4,4,5,5,6,6,7,7,8,8,9,9,10,10,11,11,12,12,13,13,14,14,15,15,16,16,17,17,18,18,19,19,20,20,21,21,22,22,23,23,24,24,25,25,26,26,27,27,28,28,29,29,30,30],"right_children":[2,4,6,8,10,12,14,16,18,20,22,24,26,28,30,32,34,36,38,40,42,44,46,48,50,52,54,56,58,60,62,-1,-1,-1,-1,-1,-1,-1,-1,-1,-1,-1,-1,-1,-1,-1,-1,-1,-1,-1,-1,-1,-1,-1,-1,-1,-1,-1,-1,-1,-1,-1,-1],"split_conditions":[5E-1,5E-1,5E-1,5E-1,5E-1,5E-1,5E-1,5E-1,5E-1,5E-1,5E-1,5E-1,5E-1,5E-1,3.2065517E-1,5E-1,5E-1,5E-1,5E-1,5E-1,1.9987932E-1,5E-1,5E-1,5E-1,2.4160689E-1,5E-1,5E-1,5E-1,5E-1,1.380345E-1,5E-1,4.5411E0,-1.3112729E0,5.6688614E0,4.6424985E0,3.1995556E-1,1.3621607E0,-3.8077772E-1,4.1554956E0,6.104963E0,2.75193E0,1.6388083E0,-1.0182174E0,6.5632906E0,7.774657E0,7.7418036E0,6.8168077E0,7.499377E0,4.786287E0,5.090486E0,3.2088945E0,6.582677E0,7.933685E0,8.252336E0,6.200809E0,8.147138E0,7.438128E0,6.3396907E0,8.821821E0,7.7944064E0,8.492278E0,8.257271E0,8.676231E0],"split_indices":[86,100,52,42,58,58,72,58,2,45,61,74,65,74,0,45,102,101,11,42,0,11,15,12,0,14,74,92,26,0,27,0,0,0,0,0,0,0,0,0,0,0,0,0,0,0,0,0,0,0,0,0,0,0,0,0,0,0,0,0,0,0,0],"split_type":[0,0,0,0,0,0,0,0,0,0,0,0,0,0,0,0,0,0,0,0,0,0,0,0,0,0,0,0,0,0,0,0,0,0,0,0,0,0,0,0,0,0,0,0,0,0,0,0,0,0,0,0,0,0,0,0,0,0,0,0,0,0,0],"sum_hessian":[3.867189E6,3.375013E6,4.92176E5,4.27172E5,2.947841E6,1.86523E5,3.05653E5,4.18802E5,8.37E3,1.44884E6,1.499001E6,5.202E4,1.34503E5,2.2174E4,2.83479E5,2.08178E5,2.10624E5,6.363E3,2.007E3,1.43613E6,1.271E4,1.243729E6,2.55272E5,5.114E4,8.8E2,7.004E3,1.27499E5,2.1749E4,4.25E2,1.46066E5,1.37413E5,2.06049E5,2.129E3,1.73656E5,3.6968E4,2.117E3,4.246E3,1.98E3,2.7E1,1.403951E6,3.2179E4,5.722E3,6.988E3,1.130252E6,1.13477E5,2.38638E5,1.6634E4,5.0265E4,8.75E2,6.08E2,2.72E2,3.395E3,3.609E3,1.26704E5,7.95E2,2.0564E4,1.185E3,3.57E2,6.8E1,2.997E3,1.43069E5,9.494E3,1.27919E5],"tree_param":{"num_deleted":"0","num_feature":"103","num_nodes":"63","size_leaf_vector":"0"}},{"base_weights":[2.5972967E1,2.4910149E1,3.3260998E1,1.975862E1,2.591652E1,3.35087E1,2.8314318E1,1.764162E1,2.3042446E1,2.4668741E1,2.8328028E1,3.364603E1,2.7847927E1,2.5790773E1,2.9297165E1,1.3840261E1,1.9975605E1,2.5107338E1,2.0150671E1,2.3790407E1,2.8225145E1,2.7487505E1,3.2520123E1,3.18972E1,3.3964226E1,2.416318E1,2.9407068E1,2.4029863E1,3.016585E1,3.459095E1,2.8879498E1,9.706436E0,2.0798944E1,2.2166996E1,1.5898897E1,2.4077005E1,2.8714277E1,2.1160799E1,1.613676E1,2.2085035E1,2.5423824E1,2.870006E1,1.9766546E1,2.6251575E1,3.0851774E1,3.1995165E1,3.9323242E1,3.201072E1,1.1525261E1,3.1202028E1,3.406082E1,2.5455374E1,1.6496967E1,4.1738335E1,2.9236631E1,1.6274864E1,2.4672812E1,2.7681984E1,3.3302456E1,3.2772617E1,3.9390564E1,2.9242815E1,2.2773607E1],"categories":[],"categories_nodes":[],"categories_segments":[],"categories_sizes":[],"default_left":[1,1,1,1,1,1,1,1,1,1,1,1,1,1,1,1,1,1,1,1,1,1,1,1,1,1,1,1,1,1,1,0,0,0,0,0,0,0,0,0,0,0,0,0,0,0,0,0,0,0,0,0,0,0,0,0,0,0,0,0,0,0,0],"id":4,"left_children":[1,3,5,7,9,11,13,15,17,19,21,23,25,27,29,31,33,35,37,39,41,43,45,47,49,51,53,55,57,59,61,-1,-1,-1,-1,-1,-1,-1,-1,-1,-1,-1,-1,-1,-1,-1,-1,-1,-1,-1,-1,-1,-1,-1,-1,-1,-1,-1,-1,-1,-1,-1,-1],"loss_changes":[2.9954048E7,1.7496832E7,6.02112E5,3.834064E6,8.494976E6,3.63424E5,5.7472E4,2.975272E6,1.29048E6,5.811584E6,3.391488E6,2.53568E5,6.31E4,5.0038E4,3.6343E4,3.669908E6,1.855968E6,4.68048E5,3.6486E5,4.156032E6,1.479808E6,3.33376E6,5.72992E5,1.62576E5,1.02208E5,3.2350125E4,1.5172E4,2.304775E4,1.3779625E4,9.443625E3,3.4074E4,0E0,0E0,0E0,0E0,0E0,0E0,0E0,0E0,0E0,0E0,0E0,0E0,0E0,0E0,0E0,0E0,0E0,0E0,0E0,0E0,0E0,0E0,0E0,0E0,0E0,0E0,0E0,0E0,0E0,0E0,0E0,0E0],"parents":[2147483647,0,0,1,1,2,2,3,3,4,4,5,5,6,6,7,7,8,8,9,9,10,10,11,11,12,12,13,13,14,14,15,15,16,16,17,17,18,18,19,19,20,20,21,21,22,22,23,23,24,24,25,25,26,26,27,27,28,28,29,29,30,30],"right_children":[2,4,6,8,10,12,14,16,18,20,22,24,26,28,30,32,34,36,38,40,42,44,46,48,50,52,54,56,58,60,62,-1,-1,-1,-1,-1,-1,-1,-1,-1,-1,-1,-1,-1,-1,-1,-1,-1,-1,-1,-1,-1,-1,-1,-1,-1,-1,-1,-1,-1,-1,-1,-1],"split_conditions":[5E-1,5E-1,5E-1,5E-1,5E-1,5E-1,5E-1,5E-1,3.5567242E-1,5E-1,5E-1,5E-1,5E-1,5E-1,8.793104E-2,5E-1,3.4253448E-1,5E-1,5E-1,5E-1,5E-1,5E-1,5E-1,5E-1,1.5520689E-1,3.486207E-1,5.3448275E-2,5E-1,5E-1,5E-1,5E-1,1.9412873E0,4.159789E0,4.433399E0,3.1797795E0,4.815401E0,5.7428555E0,4.23216E0,3.2273521E0,4.417007E0,5.084765E0,5.740012E0,3.9533093E0,5.250315E0,6.170355E0,6.399033E0,7.8646483E0,6.402144E0,2.3050523E0,6.2404056E0,6.8121643E0,5.091075E0,3.2993934E0,8.347667E0,5.8473263E0,3.254973E0,4.934562E0,5.536397E0,6.6604915E0,6.5545235E0,7.878113E0,5.848563E0,4.5547214E0],"split_indices":[86,75,51,58,24,48,72,48,0,13,11,72,72,88,0,61,0,61,74,58,66,13,52,15,0,0,0,61,10,68,34,0,0,0,0,0,0,0,0,0,0,0,0,0,0,0,0,0,0,0,0,0,0,0,0,0,0,0,0,0,0,0,0],"split_type":[0,0,0,0,0,0,0,0,0,0,0,0,0,0,0,0,0,0,0,0,0,0,0,0,0,0,0,0,0,0,0,0,0,0,0,0,0,0,0,0,0,0,0,0,0,0,0,0,0,0,0,0,0,0,0,0,0,0,0,0,0,0,0],"sum_hessian":[3.867189E6,3.375013E6,4.92176E5,5.51573E5,2.82344E6,4.687E5,2.3476E4,3.35373E5,2.162E5,1.860685E6,9.62755E5,4.57594E5,1.1106E4,6.588E3,1.6888E4,1.27584E5,2.07789E5,1.26129E5,9.0071E4,1.492168E6,3.68517E5,8.01967E5,1.60788E5,7.0457E4,3.87137E5,3.307E3,7.799E3,4.702E3,1.886E3,1.229E3,1.5659E4,8.0039E4,4.7545E4,1.35141E5,7.2648E4,9.8111E4,2.8018E4,7.1958E4,1.8113E4,7.30012E5,7.62156E5,3.48924E5,1.9593E4,5.8651E5,2.15457E5,1.49275E5,1.1513E4,7.0066E4,3.91E2,1.3092E4,3.74045E5,2.828E3,4.79E2,1.03E2,7.696E3,3.62E2,4.34E3,1.058E3,8.28E2,8.97E2,3.32E2,1.4776E4,8.83E2],"tree_param":{"num_deleted":"0","num_feature":"103","num_nodes":"63","size_leaf_vector":"0"}},{"base_weights":[2.0778416E1,1.992814E1,2.6608978E1,1.5074294E1,2.0631508E1,2.5426323E1,2.7330603E1,1.5382214E1,-3.3279717E-1,2.1553982E1,1.77762E1,2.3700804E1,2.6093498E1,2.7408916E1,2.5153446E1,1.6002718E1,9.863366E0,-2.0009108E0,3.9042816E0,2.3583134E1,2.0348507E1,1.7894552E1,-9.861665E0,2.3840475E1,5.7069573E0,2.4665438E1,2.657592E1,2.6102777E1,2.7509106E1,2.5450779E1,2.082198E1,1.6096497E1,-9.079029E0,7.463018E0,1.4703216E1,-4.045247E0,7.8161865E-1,5.293839E0,-3.0411538E-1,2.3699057E1,2.1891375E0,2.0441847E1,-4.8106537E0,1.6145975E1,1.9533836E1,-6.2354927E0,-1.2846374E1,2.3986532E1,8.261975E0,-3.2189877E0,9.294771E0,1.8751371E1,2.5395203E1,2.6976116E1,2.5474031E1,2.363344E1,2.6354801E1,2.6973019E1,2.7734655E1,2.5527624E1,1.4862586E1,2.1549074E1,1.170399E1],"categories":[],"categories_nodes":[],"categories_segments":[],"categories_sizes":[],"default_left":[1,1,1,1,1,1,1,1,1,1,1,1,1,1,1,1,1,1,1,1,1,1,1,1,1,1,1,1,1,1,1,0,0,0,0,0,0,0,0,0,0,0,0,0,0,0,0,0,0,0,0,0,0,0,0,0,0,0,0,0,0,0,0],"id":5,"left_children":[1,3,5,7,9,11,13,15,17,19,21,23,25,27,29,31,33,35,37,39,41,43,45,47,49,51,53,55,57,59,61,-1,-1,-1,-1,-1,-1,-1,-1,-1,-1,-1,-1,-1,-1,-1,-1,-1,-1,-1,-1,-1,-1,-1,-1,-1,-1,-1,-1,-1,-1,-1,-1],"loss_changes":[1.9171328E7,1.1522176E7,4.1936E5,2.026584E6,7.763968E6,2.14104E5,5.1424E4,1.434016E6,5.917344E4,5.449472E6,2.354736E6,1.30604E5,9.2008E4,3.7888E4,1.3153E4,8.85656E5,4.9166325E5,3.417354E4,1.383168E4,2.0592E6,3.282304E6,2.054208E6,3.314672E4,1.17254E5,1.2903822E4,1.4617E5,4.3648E4,1.247E4,3.2384E4,7.707E3,4.3089688E3,0E0,0E0,0E0,0E0,0E0,0E0,0E0,0E0,0E0,0E0,0E0,0E0,0E0,0E0,0E0,0E0,0E0,0E0,0E0,0E0,0E0,0E0,0E0,0E0,0E0,0E0,0E0,0E0,0E0,0E0,0E0,0E0],"parents":[2147483647,0,0,1,1,2,2,3,3,4,4,5,5,6,6,7,7,8,8,9,9,10,10,11,11,12,12,13,13,14,14,15,15,16,16,17,17,18,18,19,19,20,20,21,21,22,22,23,23,24,24,25,25,26,26,27,27,28,28,29,29,30,30],"right_children":[2,4,6,8,10,12,14,16,18,20,22,24,26,28,30,32,34,36,38,40,42,44,46,48,50,52,54,56,58,60,62,-1,-1,-1,-1,-1,-1,-1,-1,-1,-1,-1,-1,-1,-1,-1,-1,-1,-1,-1,-1,-1,-1,-1,-1,-1,-1,-1,-1,-1,-1,-1,-1],"split_conditions":[5E-1,5E-1,5E-1,5E-1,5E-1,5E-1,5E-1,5E-1,5E-1,5E-1,5E-1,5E-1,5E-1,5E-1,5E-1,5E-1,5E-1,5E-1,5E-1,5E-1,5E-1,5E-1,2.4701723E-1,5E-1,5E-1,5E-1,5E-1,5E-1,2.5975862E-1,5E-1,5E-1,3.2192993E0,-1.8158058E0,1.4926037E0,2.940643E0,-8.090494E-1,1.5632373E-1,1.0587678E0,-6.082308E-2,4.7398114E0,4.378275E-1,4.0883694E0,-9.621307E-1,3.229195E0,3.9067674E0,-1.2470986E0,-2.5692747E0,4.7973065E0,1.6523951E0,-6.437976E-1,1.8589543E0,3.7502744E0,5.0790405E0,5.395223E0,5.094806E0,4.726688E0,5.2709603E0,5.3946037E0,5.5469313E0,5.105525E0,2.9725173E0,4.309815E0,2.3407981E0],"split_indices":[86,100,52,42,15,58,62,74,71,12,45,15,14,72,92,45,3,3,2,45,45,58,0,41,48,61,2,75,0,13,3,0,0,0,0,0,0,0,0,0,0,0,0,0,0,0,0,0,0,0,0,0,0,0,0,0,0,0,0,0,0,0,0],"split_type":[0,0,0,0,0,0,0,0,0,0,0,0,0,0,0,0,0,0,0,0,0,0,0,0,0,0,0,0,0,0,0,0,0,0,0,0,0,0,0,0,0,0,0,0,0,0,0,0,0,0,0,0,0,0,0,0,0,0,0,0,0,0,0],"sum_hessian":[3.867189E6,3.375013E6,4.92176E5,4.27172E5,2.947841E6,1.86523E5,3.05653E5,4.18802E5,8.37E3,2.22802E6,7.19821E5,5.202E4,1.34503E5,2.95029E5,1.0624E4,3.76472E5,4.233E4,6.006E3,2.364E3,8.30328E5,1.397692E6,7.16752E5,3.069E3,5.1619E4,4.01E2,3.3977E4,1.00526E5,2.1037E4,2.73992E5,9.937E3,6.87E2,3.7507E5,1.402E3,2.8298E4,1.4032E4,3.462E3,2.544E3,1.777E3,5.87E2,8.25853E5,4.475E3,1.392526E6,5.166E3,3.4682E5,3.69932E5,1.387E3,1.682E3,5.1139E4,4.8E2,1.15E2,2.86E2,3.735E3,3.0242E4,7.3726E4,2.68E4,1.957E3,1.908E4,8.1175E4,1.92817E5,9.864E3,7.3E1,6.35E2,5.2E1],"tree_param":{"num_deleted":"0","num_feature":"103","num_nodes":"63","size_leaf_vector":"0"}},{"base_weights":[1.6622753E1,1.5436363E1,1.9630104E1,1.5610439E1,1.5193524E0,1.8536476E1,2.1810411E1,1.6513662E1,1.3166836E1,4.6863537E0,-6.672159E-1,1.4976051E1,1.896515E1,2.8670752E1,2.1744335E1,1.8752806E1,1.5242184E1,1.3273945E1,-8.832359E0,3.1678638E0,8.871236E0,3.100076E-1,-5.6468873E0,1.4667377E1,2.5747122E1,1.9231752E1,1.319411E1,2.7071966E1,3.854504E1,1.9155098E1,2.1903708E1,1.884521E1,1.8227868E-1,1.6379406E1,1.24521675E1,1.4226049E1,1.0863752E1,-7.7321277E0,-1.3490981E1,1.1388687E0,5.542718E0,9.842755E0,1.3841188E0,1.2611256E0,-3.670638E0,-6.1545086E0,1.1866718E1,1.2824085E1,1.683497E1,2.7618591E1,2.0068182E1,1.931664E1,5.9131107E0,1.1062723E1,1.620265E1,2.62226E1,3.6076996E1,3.4053097E1,4.029741E1,2.3147991E1,1.8902437E1,2.1238592E1,2.2135962E1],"categories":[],"categories_nodes":[],"categories_segments":[],"categories_sizes":[],"default_left":[1,1,1,1,1,1,1,1,1,1,1,1,1,1,1,1,1,1,1,1,1,1,1,1,1,1,1,1,1,1,1,0,0,0,0,0,0,0,0,0,0,0,0,0,0,0,0,0,0,0,0,0,0,0,0,0,0,0,0,0,0,0,0],"id":6,"left_children":[1,3,5,7,9,11,13,15,17,19,21,23,25,27,29,31,33,35,37,39,41,43,45,47,49,51,53,55,57,59,61,-1,-1,-1,-1,-1,-1,-1,-1,-1,-1,-1,-1,-1,-1,-1,-1,-1,-1,-1,-1,-1,-1,-1,-1,-1,-1,-1,-1,-1,-1,-1,-1],"loss_changes":[1.379744E7,6.718336E6,2.608192E6,6.044928E6,2.3724897E5,1.111712E6,1.6504E5,5.693056E6,1.741832E6,8.889322E4,9.863094E4,2.59944E5,1.000256E6,5.394225E4,1.48944E5,1.242832E6,4.046752E6,1.68784E6,1.8255438E4,4.9475555E4,2.7081594E4,6.4155688E4,2.9633219E4,3.03918E5,2.2614625E4,7.02624E5,1.839645E5,2.200725E4,2.4296875E3,2.07435E4,5.2192E4,0E0,0E0,0E0,0E0,0E0,0E0,0E0,0E0,0E0,0E0,0E0,0E0,0E0,0E0,0E0,0E0,0E0,0E0,0E0,0E0,0E0,0E0,0E0,0E0,0E0,0E0,0E0,0E0,0E0,0E0,0E0,0E0],"parents":[2147483647,0,0,1,1,2,2,3,3,4,4,5,5,6,6,7,7,8,8,9,9,10,10,11,11,12,12,13,13,14,14,15,15,16,16,17,17,18,18,19,19,20,20,21,21,22,22,23,23,24,24,25,25,26,26,27,27,28,28,29,29,30,30],"right_children":[2,4,6,8,10,12,14,16,18,20,22,24,26,28,30,32,34,36,38,40,42,44,46,48,50,52,54,56,58,60,62,-1,-1,-1,-1,-1,-1,-1,-1,-1,-1,-1,-1,-1,-1,-1,-1,-1,-1,-1,-1,-1,-1,-1,-1,-1,-1,-1,-1,-1,-1,-1,-1],"split_conditions":[5E-1,5E-1,5E-1,5E-1,2.2594827E-1,5E-1,5E-1,5E-1,5E-1,5E-1,5E-1,5E-1,5E-1,5E-1,1.6213793E-1,5E-1,5E-1,5E-1,5E-1,5E-1,5E-1,3.362931E-1,5E-1,5E-1,1.6879311E-1,5E-1,5E-1,5E-1,5E-1,6.724138E-2,5E-1,3.7690418E0,3.6455736E-2,3.2758813E0,2.4904335E0,2.8452098E0,2.1727505E0,-1.5464256E0,-2.6981962E0,2.2777374E-1,1.1085436E0,1.968551E0,2.7682376E-1,2.5222513E-1,-7.3412764E-1,-1.2309017E0,2.3733437E0,2.5648172E0,3.3669941E0,5.5237184E0,4.0136366E0,3.8633282E0,1.1826222E0,2.2125447E0,3.24053E0,5.24452E0,7.2153993E0,6.8106194E0,8.059482E0,4.629598E0,3.7804875E0,4.2477183E0,4.427192E0],"split_indices":[27,42,72,15,0,75,86,12,45,6,2,40,66,52,0,45,2,2,2,60,2,0,68,58,0,42,58,40,11,0,60,0,0,0,0,0,0,0,0,0,0,0,0,0,0,0,0,0,0,0,0,0,0,0,0,0,0,0,0,0,0,0,0],"split_type":[0,0,0,0,0,0,0,0,0,0,0,0,0,0,0,0,0,0,0,0,0,0,0,0,0,0,0,0,0,0,0,0,0,0,0,0,0,0,0,0,0,0,0,0,0,0,0,0,0,0,0,0,0,0,0,0,0,0,0,0,0,0,0],"sum_hessian":[3.867189E6,2.773183E6,1.094006E6,2.738924E6,3.4259E4,7.2857E5,3.65436E5,1.999754E6,7.3917E5,1.3992E4,2.0267E4,7.8297E4,6.50273E5,3.482E3,3.61954E5,7.24267E5,1.275487E6,7.35589E5,3.581E3,1.0268E4,3.724E3,1.6943E4,3.324E3,7.6118E4,2.179E3,6.21557E5,2.8716E4,3E3,4.82E2,2.0994E4,3.4096E5,7.20681E5,3.586E3,9.06137E5,3.6935E5,5.27288E5,2.08301E5,2.899E3,6.82E2,5.538E3,4.73E3,3.296E3,4.28E2,1.3676E4,3.267E3,3.231E3,9.3E1,4.114E4,3.4978E4,1.636E3,5.43E2,6.1762E5,3.937E3,1.6811E4,1.1905E4,2.745E3,2.55E2,1.41E2,3.41E2,1.244E3,1.975E4,8.827E4,2.5269E5],"tree_param":{"num_deleted":"0","num_feature":"103","num_nodes":"63","size_leaf_vector":"0"}},{"base_weights":[1.3298224E1,1.2349095E1,1.5704149E1,9.548616E0,1.3012606E1,1.4932033E1,1.78787E1,8.702544E0,1.6760563E1,1.33819275E1,7.5171075E0,1.3556437E1,1.5854258E1,2.3427963E1,1.7620008E1,7.2874637E0,1.1047752E1,1.6643583E1,2.5449617E1,1.1746217E1,1.4256488E1,8.4574995E0,5.297459E0,1.2979815E1,2.0281387E1,1.6334524E1,1.3912525E1,2.3133541E1,3.0866817E1,1.7377943E1,1.8021185E1,4.4782248E0,8.994027E0,1.2101118E1,8.203812E0,1.6903748E1,1.298171E1,2.334832E1,3.0773127E1,1.3858223E1,1.0482013E1,1.4369216E1,2.703392E0,9.252154E0,6.2088914E0,6.2368917E0,2.5786893E0,1.1374343E1,1.4310617E1,1.7562986E1,2.1035343E1,1.7247051E1,1.5354735E1,1.447029E1,1.2116187E1,2.1239645E1,2.3872644E1,2.729044E1,3.2261494E1,1.7384441E1,4.7120423E0,1.8034985E1,9.513915E0],"categories":[],"categories_nodes":[],"categories_segments":[],"categories_sizes":[],"default_left":[1,1,1,1,1,1,1,1,1,1,1,1,1,1,1,1,1,1,1,1,1,1,1,1,1,1,1,1,1,1,1,0,0,0,0,0,0,0,0,0,0,0,0,0,0,0,0,0,0,0,0,0,0,0,0,0,0,0,0,0,0,0,0],"id":7,"left_children":[1,3,5,7,9,11,13,15,17,19,21,23,25,27,29,31,33,35,37,39,41,43,45,47,49,51,53,55,57,59,61,-1,-1,-1,-1,-1,-1,-1,-1,-1,-1,-1,-1,-1,-1,-1,-1,-1,-1,-1,-1,-1,-1,-1,-1,-1,-1,-1,-1,-1,-1,-1,-1],"loss_changes":[8.83072E6,5.152864E6,1.836544E6,3.241108E6,4.55024E6,1.024016E6,4.11104E5,1.57768E6,5.6266E4,3.005088E6,2.946585E5,1.256264E6,4.50488E5,2.7244E4,2.6288E4,1.421487E6,5.35864E5,5.2212E4,7.5481562E3,1.954072E6,1.782752E6,1.771445E5,1.07302125E5,6.37492E5,5.2074E4,3.46168E5,9.5856E4,1.6687E4,1.5287188E3,1.398E4,1.1928E4,0E0,0E0,0E0,0E0,0E0,0E0,0E0,0E0,0E0,0E0,0E0,0E0,0E0,0E0,0E0,0E0,0E0,0E0,0E0,0E0,0E0,0E0,0E0,0E0,0E0,0E0,0E0,0E0,0E0,0E0,0E0,0E0],"parents":[2147483647,0,0,1,1,2,2,3,3,4,4,5,5,6,6,7,7,8,8,9,9,10,10,11,11,12,12,13,13,14,14,15,15,16,16,17,17,18,18,19,19,20,20,21,21,22,22,23,23,24,24,25,25,26,26,27,27,28,28,29,29,30,30],"right_children":[2,4,6,8,10,12,14,16,18,20,22,24,26,28,30,32,34,36,38,40,42,44,46,48,50,52,54,56,58,60,62,-1,-1,-1,-1,-1,-1,-1,-1,-1,-1,-1,-1,-1,-1,-1,-1,-1,-1,-1,-1,-1,-1,-1,-1,-1,-1,-1,-1,-1,-1,-1,-1],"split_conditions":[5E-1,5E-1,5E-1,5E-1,5E-1,5E-1,5E-1,5E-1,5E-1,5E-1,5E-1,5E-1,5E-1,5E-1,3.6684483E-1,5E-1,4.620862E-1,5E-1,5E-1,5E-1,5E-1,5E-1,5E-1,5E-1,5E-1,5E-1,5E-1,5E-1,5E-1,5E-1,5E-1,8.9564496E-1,1.7988055E0,2.4202237E0,1.6407623E0,3.3807495E0,2.596342E0,4.669664E0,6.1546254E0,2.7716446E0,2.0964026E0,2.8738432E0,5.4067844E-1,1.8504308E0,1.2417783E0,1.2473783E0,5.157379E-1,2.2748687E0,2.8621235E0,3.5125973E0,4.207069E0,3.4494102E0,3.0709472E0,2.894058E0,2.4232376E0,4.247929E0,4.774529E0,5.458088E0,6.4522986E0,3.4768884E0,9.424085E-1,3.606997E0,1.902783E0],"split_indices":[27,75,52,72,66,58,86,58,11,83,35,40,15,72,0,48,0,51,52,21,42,2,2,48,83,12,2,24,11,12,71,0,0,0,0,0,0,0,0,0,0,0,0,0,0,0,0,0,0,0,0,0,0,0,0,0,0,0,0,0,0,0,0],"split_type":[0,0,0,0,0,0,0,0,0,0,0,0,0,0,0,0,0,0,0,0,0,0,0,0,0,0,0,0,0,0,0,0,0,0,0,0,0,0,0,0,0,0,0,0,0,0,0,0,0,0,0,0,0,0,0,0,0,0,0,0,0,0,0],"sum_hessian":[3.867189E6,2.773183E6,1.094006E6,5.31193E5,2.24199E6,8.07349E5,2.86657E5,4.75421E5,5.5772E4,2.100805E6,1.41185E5,3.24034E5,4.83315E5,1.2764E4,2.73893E5,2.96512E5,1.78909E5,5.5034E4,7.38E2,7.3191E5,1.368895E6,9.9168E4,4.2017E4,2.98447E5,2.5587E4,3.87471E5,9.5844E4,1.2282E4,4.82E2,1.70849E5,1.03044E5,1.12056E5,1.84456E5,1.30551E5,4.8358E4,5.138E4,3.654E3,5.33E2,2.05E2,2.74056E5,4.57854E5,1.355667E6,1.3228E4,7.3271E4,2.5897E4,3.1226E4,1.0791E4,1.35269E5,1.63178E5,5.561E3,2.0026E4,2.00613E5,1.86858E5,7.313E4,2.2714E4,3.456E3,8.826E3,1.41E2,3.41E2,1.70761E5,8.8E1,1.02876E5,1.68E2],"tree_param":{"num_deleted":"0","num_feature":"103","num_nodes":"63","size_leaf_vector":"0"}},{"base_weights":[1.0638603E1,1.1312547E1,8.437285E0,1.2885657E1,9.981738E0,7.0852137E0,9.740978E0,1.4118973E1,1.1955158E1,6.376648E0,1.0511782E1,3.263948E0,8.554537E0,1.0956414E1,8.824026E0,1.4277076E1,1.1497794E1,1.2203088E1,6.6369357E0,7.1710005E0,1.8164582E0,9.23404E0,1.1705806E1,2.7195837E0,1.758596E1,9.485845E0,5.9289827E0,1.0020391E1,1.215056E1,8.012136E0,1.0655674E1,1.4041071E1,1.5012665E1,1.1923971E1,5.232279E-1,1.2398634E1,6.4290586E0,7.8111024E0,-1.6328393E0,7.346071E0,-3.1901984E0,-2.7468735E-1,4.4513283E0,6.6065273E0,1.0416218E1,1.2427689E1,9.709697E0,6.5077195E0,1.0673025E0,1.3610195E1,1.9819773E1,1.1433134E1,8.392502E0,3.063234E0,7.0148816E0,1.0557349E1,8.295717E0,1.1155949E1,1.3018798E1,7.7581797E0,1.2088531E1,1.0882716E1,7.042571E0],"categories":[],"categories_nodes":[],"categories_segments":[],"categories_sizes":[],"default_left":[1,1,1,1,1,1,1,1,1,1,1,1,1,1,1,1,1,1,1,1,1,1,1,1,1,1,1,1,1,1,1,0,0,0,0,0,0,0,0,0,0,0,0,0,0,0,0,0,0,0,0,0,0,0,0,0,0,0,0,0,0,0,0],"id":8,"left_children":[1,3,5,7,9,11,13,15,17,19,21,23,25,27,29,31,33,35,37,39,41,43,45,47,49,51,53,55,57,59,61,-1,-1,-1,-1,-1,-1,-1,-1,-1,-1,-1,-1,-1,-1,-1,-1,-1,-1,-1,-1,-1,-1,-1,-1,-1,-1,-1,-1,-1,-1,-1,-1],"loss_changes":[5.73712E6,6.198208E6,1.597716E6,1.55696E6,3.064752E6,2.498344E6,5.1422E5,2.41632E5,1.019648E6,7.4472E5,2.133216E6,9.63438E5,7.85812E5,2.21684E5,3.91082E5,9.5312E4,1.552595E5,8.34224E5,3.345255E5,3.17628E5,1.6805856E5,2.098096E6,1.04144E6,7.451787E5,3.9917375E4,5.04998E5,2.6185875E5,1.02935E5,7.5148E4,1.88587E5,6.6192E4,0E0,0E0,0E0,0E0,0E0,0E0,0E0,0E0,0E0,0E0,0E0,0E0,0E0,0E0,0E0,0E0,0E0,0E0,0E0,0E0,0E0,0E0,0E0,0E0,0E0,0E0,0E0,0E0,0E0,0E0,0E0,0E0],"parents":[2147483647,0,0,1,1,2,2,3,3,4,4,5,5,6,6,7,7,8,8,9,9,10,10,11,11,12,12,13,13,14,14,15,15,16,16,17,17,18,18,19,19,20,20,21,21,22,22,23,23,24,24,25,25,26,26,27,27,28,28,29,29,30,30],"right_children":[2,4,6,8,10,12,14,16,18,20,22,24,26,28,30,32,34,36,38,40,42,44,46,48,50,52,54,56,58,60,62,-1,-1,-1,-1,-1,-1,-1,-1,-1,-1,-1,-1,-1,-1,-1,-1,-1,-1,-1,-1,-1,-1,-1,-1,-1,-1,-1,-1,-1,-1,-1,-1],"split_conditions":[5E-1,5E-1,5E-1,5E-1,5E-1,5E-1,2.8981036E-1,5E-1,5E-1,5E-1,5E-1,5E-1,5E-1,5E-1,5E-1,5E-1,5E-1,5E-1,5E-1,5E-1,5E-1,5E-1,5E-1,2.1826896E-1,5E-1,2.5518966E-1,5E-1,5E-1,5E-1,5E-1,5E-1,2.8082142E0,3.002533E0,2.3847942E0,1.0464557E-1,2.4797268E0,1.2858118E0,1.5622205E0,-3.2656786E-1,1.4692142E0,-6.380397E-1,-5.493747E-2,8.9026564E-1,1.3213055E0,2.0832436E0,2.4855378E0,1.9419394E0,1.301544E0,2.1346049E-1,2.722039E0,3.9639547E0,2.2866268E0,1.6785004E0,6.126468E-1,1.4029764E0,2.11147E0,1.6591434E0,2.2311897E0,2.6037595E0,1.551636E0,2.4177063E0,2.1765432E0,1.4085143E0],"split_indices":[15,12,58,13,100,48,0,62,92,102,58,52,2,3,24,83,66,66,41,44,58,48,2,0,100,0,75,2,83,68,92,0,0,0,0,0,0,0,0,0,0,0,0,0,0,0,0,0,0,0,0,0,0,0,0,0,0,0,0,0,0,0,0],"split_type":[0,0,0,0,0,0,0,0,0,0,0,0,0,0,0,0,0,0,0,0,0,0,0,0,0,0,0,0,0,0,0,0,0,0,0,0,0,0,0,0,0,0,0,0,0,0,0,0,0,0,0,0,0,0,0,0,0,0,0,0,0,0,0],"sum_hessian":[3.867189E6,2.960741E6,9.06448E5,1.356845E6,1.603896E6,4.44971E5,4.61477E5,5.83474E5,7.73371E5,2.0559E5,1.398306E6,1.2358E5,3.21391E5,1.98436E5,2.63041E5,5.50278E5,3.3196E4,7.38922E5,3.4449E4,1.7509E5,3.05E4,6.75477E5,7.22829E5,1.19056E5,4.524E3,2.37238E5,8.4153E4,1.11246E5,8.719E4,1.82259E5,8.0782E4,4.16628E5,1.3365E5,3.1955E4,1.241E3,7.14716E5,2.4206E4,3.0166E4,4.283E3,1.72181E5,2.909E3,1.7005E4,1.3495E4,2.09608E5,4.65869E5,5.30846E5,1.91983E5,3.6157E4,8.2899E4,1.63E3,2.894E3,8.5302E4,1.51936E5,2.3126E4,6.1027E4,8.483E4,2.6416E4,4.0644E4,4.6546E4,1.71573E5,1.0686E4,7.6004E4,4.778E3],"tree_param":{"num_deleted":"0","num_feature":"103","num_nodes":"63","size_leaf_vector":"0"}},{"base_weights":[8.510897E0,8.912664E0,5.511347E0,9.441527E0,7.1453443E0,5.6818037E0,-1.08301325E1,1.0595577E1,8.416914E0,7.3923144E0,2.4112837E0,5.869833E0,-3.7806494E0,-3.4480188E0,-1.3085505E1,1.0167538E1,1.1933986E1,6.8020144E0,9.357792E0,7.122283E0,1.1077319E1,3.5382652E-1,4.9706087E0,5.094039E0,8.032838E0,-1.9943358E0,-6.9954934E0,-2.2532206E0,-1.3518167E1,-1.065016E1,-1.5861201E1,1.1137611E1,9.351074E0,1.1781164E1,1.6188225E1,5.13394E0,8.095068E0,1.0023043E1,6.7826824E0,6.639623E0,8.87476E0,9.461794E0,1.1921823E1,-4.5215774E-1,5.2820315E0,5.4282255E0,-2.1343603E0,6.1377025E0,2.9966626E0,7.321123E0,9.347766E0,-1.2289244E0,-9.6120205E0,-8.351919E0,-2.091792E0,-1.0586897E1,-1.4173493E0,-1.5287838E1,4.924837E0,-1.118188E1,-1.5910828E0,-1.6964281E1,-9.855356E0],"categories":[],"categories_nodes":[],"categories_segments":[],"categories_sizes":[],"default_left":[1,1,1,1,1,1,1,1,1,1,1,1,1,1,1,1,1,1,1,1,1,1,1,1,1,1,1,1,1,1,1,0,0,0,0,0,0,0,0,0,0,0,0,0,0,0,0,0,0,0,0,0,0,0,0,0,0,0,0,0,0,0,0],"id":9,"left_children":[1,3,5,7,9,11,13,15,17,19,21,23,25,27,29,31,33,35,37,39,41,43,45,47,49,51,53,55,57,59,61,-1,-1,-1,-1,-1,-1,-1,-1,-1,-1,-1,-1,-1,-1,-1,-1,-1,-1,-1,-1,-1,-1,-1,-1,-1,-1,-1,-1,-1,-1,-1,-1],"loss_changes":[4.660384E6,3.18752E6,1.272485E6,3.103728E6,9.1836E5,8.0438E5,7.847356E4,7.07088E5,2.112576E6,7.42788E5,2.0508681E5,7.43798E5,5.057368E4,1.3264674E4,2.4247375E4,7.4072E5,1.94284E5,1.10402E6,1.504992E6,5.88296E5,6.94245E4,8.576701E4,5.644525E4,7.14155E5,1.094415E5,3.3013055E4,2.0908172E4,6.8742505E3,3.8939414E3,9.264359E3,1.10024375E4,0E0,0E0,0E0,0E0,0E0,0E0,0E0,0E0,0E0,0E0,0E0,0E0,0E0,0E0,0E0,0E0,0E0,0E0,0E0,0E0,0E0,0E0,0E0,0E0,0E0,0E0,0E0,0E0,0E0,0E0,0E0,0E0],"parents":[2147483647,0,0,1,1,2,2,3,3,4,4,5,5,6,6,7,7,8,8,9,9,10,10,11,11,12,12,13,13,14,14,15,15,16,16,17,17,18,18,19,19,20,20,21,21,22,22,23,23,24,24,25,25,26,26,27,27,28,28,29,29,30,30],"right_children":[2,4,6,8,10,12,14,16,18,20,22,24,26,28,30,32,34,36,38,40,42,44,46,48,50,52,54,56,58,60,62,-1,-1,-1,-1,-1,-1,-1,-1,-1,-1,-1,-1,-1,-1,-1,-1,-1,-1,-1,-1,-1,-1,-1,-1,-1,-1,-1,-1,-1,-1,-1,-1],"split_conditions":[5E-1,5E-1,5E-1,5E-1,5E-1,5E-1,1.5451723E-1,5E-1,5E-1,5E-1,5E-1,5E-1,2.6772416E-1,5E-1,5E-1,5E-1,5E-1,5E-1,3.1417584E-1,5E-1,5E-1,5E-1,5E-1,3.141392E-1,5E-1,5E-1,5E-1,5E-1,5E-1,5E-1,5E-1,2.2275224E0,1.8702148E0,2.356233E0,3.237645E0,1.0267881E0,1.6190137E0,2.0046086E0,1.3565365E0,1.3279246E0,1.7749519E0,1.8923588E0,2.3843646E0,-9.043155E-2,1.0564064E0,1.0856451E0,-4.2687207E-1,1.2275405E0,5.993325E-1,1.4642247E0,1.8695532E0,-2.4578488E-1,-1.9224042E0,-1.6703838E0,-4.1835842E-1,-2.1173794E0,-2.834699E-1,-3.0575676E0,9.849674E-1,-2.236376E0,-3.1821656E-1,-3.3928564E0,-1.9710712E0],"split_indices":[35,15,45,12,74,42,0,88,83,68,3,24,0,62,12,13,40,58,0,67,7,61,41,0,3,62,71,83,11,11,71,0,0,0,0,0,0,0,0,0,0,0,0,0,0,0,0,0,0,0,0,0,0,0,0,0,0,0,0,0,0,0,0],"split_type":[0,0,0,0,0,0,0,0,0,0,0,0,0,0,0,0,0,0,0,0,0,0,0,0,0,0,0,0,0,0,0,0,0,0,0,0,0,0,0,0,0,0,0,0,0,0,0,0,0,0,0,0,0,0,0,0,0,0,0,0,0,0,0],"sum_hessian":[3.867189E6,3.41039E6,4.56799E5,2.624896E6,7.85494E5,4.52084E5,4.715E3,1.23447E6,1.390426E6,7.46547E5,3.8947E4,4.43276E5,8.808E3,1.104E3,3.611E3,9.35344E5,2.99126E5,5.11871E5,8.78555E5,6.95579E5,5.0968E4,2.1591E4,1.7356E4,3.26261E5,1.17015E5,5.663E3,3.145E3,9.88E2,1.16E2,1.926E3,1.685E3,4.27455E5,5.07889E5,2.88757E5,1.0369E4,2.23524E5,2.88347E5,6.98184E5,1.80371E5,5.45378E5,1.50201E5,1.7501E4,3.3467E4,1.8557E4,3.034E3,1.6306E4,1.05E3,2.17854E5,1.08407E5,7.5926E4,4.1089E4,5.147E3,5.16E2,2.463E3,6.82E2,8.9E1,8.99E2,1.06E2,1E1,1.819E3,1.07E2,1.422E3,2.63E2],"tree_param":{"num_deleted":"0","num_feature":"103","num_nodes":"63","size_leaf_vector":"0"}},{"base_weights":[6.8087206E0,6.868325E0,-8.644807E0,7.0731635E0,2.923564E0,-2.6323113E0,-1.0805875E1,7.9903383E0,6.123613E0,3.1125205E0,-5.9691653E0,1.3185788E0,-4.449741E0,-8.973633E0,-1.3068851E1,8.3608465E0,4.402506E0,5.3708196E0,7.832005E0,3.8447635E0,1.0625798E0,-1.4466352E0,-8.371637E0,1.9450876E0,-6.798613E0,-3.5949266E0,-1.13832855E1,-1.2415699E1,-7.978943E0,-1.0038452E1,-1.5241459E1,8.207023E0,1.3530659E1,4.5412908E0,-4.5341086E0,3.4486806E0,5.936123E0,7.6679573E0,1.4678082E1,3.0713813E0,5.1702824E0,7.385992E-1,1.4953055E1,-5.724025E0,4.5248556E0,-4.393153E0,-9.830195E0,1.4007097E0,9.964794E0,-9.575457E0,1.0171812E1,-5.373269E0,-1.01863585E-1,-1.2778782E1,5.675579E0,-1.3651211E1,-8.143699E0,-8.883603E0,-4.5705743E0,-1.1980449E1,-7.854623E0,-1.590352E1,-3.7274594E0],"categories":[],"categories_nodes":[],"categories_segments":[],"categories_sizes":[],"default_left":[1,1,1,1,1,1,1,1,1,1,1,1,1,1,1,1,1,1,1,1,1,1,1,1,1,1,1,1,1,1,1,0,0,0,0,0,0,0,0,0,0,0,0,0,0,0,0,0,0,0,0,0,0,0,0,0,0,0,0,0,0,0,0],"id":10,"left_children":[1,3,5,7,9,11,13,15,17,19,21,23,25,27,29,31,33,35,37,39,41,43,45,47,49,51,53,55,57,59,61,-1,-1,-1,-1,-1,-1,-1,-1,-1,-1,-1,-1,-1,-1,-1,-1,-1,-1,-1,-1,-1,-1,-1,-1,-1,-1,-1,-1,-1,-1,-1,-1],"loss_changes":[3.562144E6,3.1128E6,1.9304075E5,3.18936E6,3.1956212E5,2.8225098E4,4.5202E4,2.476272E6,2.314016E6,2.7950738E5,4.298167E4,6.3141484E3,1.5914277E4,2.0590906E4,3.2029E4,1.342632E6,2.1628275E5,1.357108E6,6.1798E5,1.4063338E5,2.2054588E5,3.512115E4,1.4951391E4,5.011021E3,4.291454E3,1.4895502E4,7.095172E3,7.0301094E3,1.4423719E4,8.574469E3,2.1628E4,0E0,0E0,0E0,0E0,0E0,0E0,0E0,0E0,0E0,0E0,0E0,0E0,0E0,0E0,0E0,0E0,0E0,0E0,0E0,0E0,0E0,0E0,0E0,0E0,0E0,0E0,0E0,0E0,0E0,0E0,0E0,0E0],"parents":[2147483647,0,0,1,1,2,2,3,3,4,4,5,5,6,6,7,7,8,8,9,9,10,10,11,11,12,12,13,13,14,14,15,15,16,16,17,17,18,18,19,19,20,20,21,21,22,22,23,23,24,24,25,25,26,26,27,27,28,28,29,29,30,30],"right_children":[2,4,6,8,10,12,14,16,18,20,22,24,26,28,30,32,34,36,38,40,42,44,46,48,50,52,54,56,58,60,62,-1,-1,-1,-1,-1,-1,-1,-1,-1,-1,-1,-1,-1,-1,-1,-1,-1,-1,-1,-1,-1,-1,-1,-1,-1,-1,-1,-1,-1,-1,-1,-1],"split_conditions":[5E-1,5E-1,1.5539655E-1,5E-1,5E-1,1.0346552E-1,2.6913792E-1,5E-1,5E-1,5E-1,5E-1,5E-1,5E-1,5E-1,5E-1,5E-1,5E-1,5E-1,5E-1,5E-1,5E-1,5E-1,5E-1,5E-1,5E-1,5E-1,5E-1,5E-1,5E-1,5E-1,5E-1,1.6414045E0,2.7061317E0,9.0825814E-1,-9.068217E-1,6.897361E-1,1.1872246E0,1.5335915E0,2.9356165E0,6.142763E-1,1.0340565E0,1.4771985E-1,2.990611E0,-1.144805E0,9.049711E-1,-8.7863064E-1,-1.9660391E0,2.8014195E-1,1.9929589E0,-1.9150914E0,2.0343626E0,-1.0746539E0,-2.0372717E-2,-2.5557563E0,1.1351159E0,-2.7302423E0,-1.6287397E0,-1.7767206E0,-9.141149E-1,-2.3960898E0,-1.5709246E0,-3.1807039E0,-7.454919E-1],"split_indices":[45,66,0,64,42,0,0,69,24,2,7,62,62,83,75,40,42,75,52,58,52,61,75,4,11,6,11,71,67,15,11,0,0,0,0,0,0,0,0,0,0,0,0,0,0,0,0,0,0,0,0,0,0,0,0,0,0,0,0,0,0,0,0],"split_type":[0,0,0,0,0,0,0,0,0,0,0,0,0,0,0,0,0,0,0,0,0,0,0,0,0,0,0,0,0,0,0,0,0,0,0,0,0,0,0,0,0,0,0,0,0,0,0,0,0,0,0,0,0,0,0,0,0,0,0,0,0,0,0],"sum_hessian":[3.867189E6,3.852331E6,1.4858E4,3.662166E6,1.90165E5,3.929E3,1.0929E4,1.862837E6,1.799329E6,1.86209E5,3.956E3,1.238E3,2.691E3,6.042E3,4.887E3,1.688471E6,1.74366E5,1.248978E6,5.50351E5,1.372E5,4.9009E4,1.373E3,2.583E3,1.15E3,8.8E1,2.397E3,2.94E2,1.352E3,4.69E3,2.043E3,2.844E3,1.639686E6,4.8785E4,1.717E5,2.666E3,2.83848E5,9.6513E5,5.37474E5,1.2877E4,8.6648E4,5.0552E4,4.7893E4,1.116E3,8E2,5.73E2,6.94E2,1.889E3,1.078E3,7.2E1,7.6E1,1.2E1,1.588E3,8.09E2,2.72E2,2.2E1,1.047E3,3.05E2,3.705E3,9.85E2,1.079E3,9.64E2,2.689E3,1.55E2],"tree_param":{"num_deleted":"0","num_feature":"103","num_nodes":"63","size_leaf_vector":"0"}},{"base_weights":[5.446976E0,5.5330997E0,-2.6637106E0,5.024595E0,6.813632E0,-5.336129E0,-1.409683E0,4.344647E0,6.2261276E0,6.4836307E0,8.0681925E0,-6.563043E0,-2.288157E0,-2.3827786E0,1.8385653E0,4.5044866E0,-1.090945E0,4.821849E0,6.940079E0,6.0137715E0,7.6753783E0,7.622073E0,8.8130665E0,-7.850792E0,-4.897583E0,-4.391165E0,-6.929581E-1,-1.6944624E0,-6.9069366E0,4.0393357E0,-7.7746314E-1,3.609508E0,5.347901E0,-6.477935E-1,-1.2168015E1,5.0986576E0,-3.864333E0,7.0241094E0,-4.920292E0,6.4190784E0,4.6065116E0,1.2025774E1,7.488879E0,7.5195584E0,1.2260167E1,7.7835307E0,9.34171E0,-6.0258155E0,-9.441633E0,-6.8896337E0,-3.7431135E0,-3.2338402E0,-6.0511193E0,-9.757121E-2,-6.345703E0,-6.4805853E-1,-3.6050067E0,-7.7380414E0,7.7794566E0,4.480392E0,-6.011788E0,-2.0407934E0,2.15919E0],"categories":[],"categories_nodes":[],"categories_segments":[],"categories_sizes":[],"default_left":[1,1,1,1,1,1,1,1,1,1,1,1,1,1,1,1,1,1,1,1,1,1,1,1,1,1,1,1,1,1,1,0,0,0,0,0,0,0,0,0,0,0,0,0,0,0,0,0,0,0,0,0,0,0,0,0,0,0,0,0,0,0,0],"id":11,"left_children":[1,3,5,7,9,11,13,15,17,19,21,23,25,27,29,31,33,35,37,39,41,43,45,47,49,51,53,55,57,59,61,-1,-1,-1,-1,-1,-1,-1,-1,-1,-1,-1,-1,-1,-1,-1,-1,-1,-1,-1,-1,-1,-1,-1,-1,-1,-1,-1,-1,-1,-1,-1,-1],"loss_changes":[2.70132E6,2.491656E6,1.3616531E5,2.237616E6,4.50236E5,4.851375E4,8.742419E4,1.519672E6,9.92348E5,4.82144E5,7.5202E4,1.9804312E4,1.2496627E4,6.6261555E4,3.6711547E4,1.282556E6,2.4526625E5,8.02184E5,6.5402E5,3.52248E5,1.97472E5,6.7268E4,4.61005E4,1.50864375E4,9.258344E3,3.0676484E3,7.1343896E3,3.6928906E4,3.435886E4,1.5378801E4,1.0815239E4,0E0,0E0,0E0,0E0,0E0,0E0,0E0,0E0,0E0,0E0,0E0,0E0,0E0,0E0,0E0,0E0,0E0,0E0,0E0,0E0,0E0,0E0,0E0,0E0,0E0,0E0,0E0,0E0,0E0,0E0,0E0,0E0],"parents":[2147483647,0,0,1,1,2,2,3,3,4,4,5,5,6,6,7,7,8,8,9,9,10,10,11,11,12,12,13,13,14,14,15,15,16,16,17,17,18,18,19,19,20,20,21,21,22,22,23,23,24,24,25,25,26,26,27,27,28,28,29,29,30,30],"right_children":[2,4,6,8,10,12,14,16,18,20,22,24,26,28,30,32,34,36,38,40,42,44,46,48,50,52,54,56,58,60,62,-1,-1,-1,-1,-1,-1,-1,-1,-1,-1,-1,-1,-1,-1,-1,-1,-1,-1,-1,-1,-1,-1,-1,-1,-1,-1,-1,-1,-1,-1,-1,-1],"split_conditions":[5E-1,5E-1,5E-1,5E-1,5E-1,5E-1,5E-1,5E-1,5E-1,5E-1,5E-1,5E-1,5E-1,5E-1,2.0017242E-1,5E-1,5E-1,5E-1,5E-1,5E-1,5E-1,5E-1,5E-1,5E-1,5E-1,5E-1,3.9682758E-1,5E-1,5E-1,5E-1,5E-1,7.219016E-1,1.0695802E0,-1.295587E-1,-2.433603E0,1.0197315E0,-7.728666E-1,1.4048219E0,-9.840584E-1,1.2838157E0,9.213023E-1,2.405155E0,1.4977759E0,1.5039117E0,2.4520335E0,1.5567062E0,1.868342E0,-1.2051631E0,-1.8883266E0,-1.3779267E0,-7.486227E-1,-6.4676803E-1,-1.2102239E0,-1.9514242E-2,-1.2691406E0,-1.2961172E-1,-7.210013E-1,-1.5476083E0,1.5558914E0,8.960784E-1,-1.2023576E0,-4.081587E-1,4.31838E-1],"split_indices":[42,27,83,3,88,71,6,102,83,52,3,15,3,2,0,58,41,41,45,2,86,4,83,21,3,2,0,1,11,91,95,0,0,0,0,0,0,0,0,0,0,0,0,0,0,0,0,0,0,0,0,0,0,0,0,0,0,0,0,0,0,0,0],"split_type":[0,0,0,0,0,0,0,0,0,0,0,0,0,0,0,0,0,0,0,0,0,0,0,0,0,0,0,0,0,0,0,0,0,0,0,0,0,0,0,0,0,0,0,0,0,0,0,0,0,0,0,0,0,0,0,0,0,0,0,0,0,0,0],"sum_hessian":[3.867189E6,3.826557E6,4.0632E4,2.738924E6,1.087633E6,1.2976E4,2.7656E4,1.749108E6,9.89816E5,8.61127E5,2.26506E5,9.251E3,3.725E3,2.1281E4,6.375E3,1.699143E6,4.9965E4,3.33621E5,6.56195E5,6.17627E5,2.435E5,1.41669E5,8.4837E4,5.215E3,4.036E3,1.606E3,2.119E3,1.8472E4,2.809E3,3.462E3,2.913E3,8.24374E5,8.74769E5,4.8044E4,1.921E3,3.23318E5,1.0303E4,6.51579E5,4.616E3,4.79517E5,1.3811E5,1.0007E4,2.33493E5,1.38608E5,3.061E3,2.8788E4,5.6049E4,2.431E3,2.784E3,1.479E3,2.557E3,9.48E2,6.58E2,1.918E3,2.01E2,1.1936E4,6.536E3,2.659E3,1.5E2,3.317E3,1.45E2,2.037E3,8.76E2],"tree_param":{"num_deleted":"0","num_feature":"103","num_nodes":"63","size_leaf_vector":"0"}},{"base_weights":[4.357582E0,4.5272517E0,7.4797523E-1,5.476157E0,3.796067E0,-9.1090304E-1,3.6551359E0,5.6970644E0,2.9811308E0,2.6378424E0,4.4231114E0,4.158589E-1,-4.3751817E0,3.0105355E0,1.3189918E1,5.788846E0,2.0368383E0,1.4654217E0,3.9486432E0,2.843322E0,-5.3624954E0,4.8881173E0,2.7969756E0,8.817567E-1,-5.7862043E0,-3.8400323E0,-1.4352324E1,3.6270175E0,-2.1078465E0,1.1457328E1,1.8138668E1,5.878084E0,2.5129588E0,1.3119289E0,4.9428277E0,4.540518E0,2.9285666E-1,4.2480464E0,-2.8245785E0,2.9534945E0,-5.052446E0,-4.1902795E0,-9.825402E0,5.6466694E0,3.919119E0,2.6697075E0,1.1911871E1,2.0858774E0,-1.1083585E0,9.572257E-3,-1.0279501E1,-3.4770203E0,-1.6723053E1,-1.5091666E1,-4.1852455E0,4.497926E0,7.114356E-1,-1.1607811E-1,-1.0000138E1,9.800379E0,1.9021517E1,1.9861614E1,1.3450983E1],"categories":[],"categories_nodes":[],"categories_segments":[],"categories_sizes":[],"default_left":[1,1,1,1,1,1,1,1,1,1,1,1,1,1,1,1,1,1,1,1,1,1,1,1,1,1,1,1,1,1,1,0,0,0,0,0,0,0,0,0,0,0,0,0,0,0,0,0,0,0,0,0,0,0,0,0,0,0,0,0,0,0,0],"id":12,"left_children":[1,3,5,7,9,11,13,15,17,19,21,23,25,27,29,31,33,35,37,39,41,43,45,47,49,51,53,55,57,59,61,-1,-1,-1,-1,-1,-1,-1,-1,-1,-1,-1,-1,-1,-1,-1,-1,-1,-1,-1,-1,-1,-1,-1,-1,-1,-1,-1,-1,-1,-1,-1,-1],"loss_changes":[2.368424E6,2.56268E6,8.37298E5,8.85964E5,1.515044E6,5.0808303E5,3.8763938E5,4.96076E5,1.9173338E5,1.2045265E6,1.023378E6,2.3096797E5,1.6339025E5,1.8644075E5,3.4037375E4,4.2112E5,7.60937E4,1.8369E5,1.6185238E5,6.214385E5,9.594619E4,7.73562E5,3.4908875E5,1.7816295E5,1.4544545E5,1.3582325E5,1.164825E4,1.3389681E5,9.984984E4,3.6925156E4,8.0840938E3,0E0,0E0,0E0,0E0,0E0,0E0,0E0,0E0,0E0,0E0,0E0,0E0,0E0,0E0,0E0,0E0,0E0,0E0,0E0,0E0,0E0,0E0,0E0,0E0,0E0,0E0,0E0,0E0,0E0,0E0,0E0,0E0],"parents":[2147483647,0,0,1,1,2,2,3,3,4,4,5,5,6,6,7,7,8,8,9,9,10,10,11,11,12,12,13,13,14,14,15,15,16,16,17,17,18,18,19,19,20,20,21,21,22,22,23,23,24,24,25,25,26,26,27,27,28,28,29,29,30,30],"right_children":[2,4,6,8,10,12,14,16,18,20,22,24,26,28,30,32,34,36,38,40,42,44,46,48,50,52,54,56,58,60,62,-1,-1,-1,-1,-1,-1,-1,-1,-1,-1,-1,-1,-1,-1,-1,-1,-1,-1,-1,-1,-1,-1,-1,-1,-1,-1,-1,-1,-1,-1,-1,-1],"split_conditions":[5E-1,5E-1,5E-1,5E-1,5E-1,5E-1,5E-1,5E-1,5E-1,5E-1,5E-1,5E-1,5E-1,5E-1,5E-1,5E-1,5E-1,2.282931E-1,5E-1,5E-1,5E-1,5E-1,5E-1,5E-1,2.117931E-1,5E-1,5E-1,5E-1,5E-1,5E-1,5E-1,1.1756169E0,5.025918E-1,2.623858E-1,9.8856556E-1,9.081036E-1,5.8571335E-2,8.496093E-1,-5.649157E-1,5.906989E-1,-1.0104892E0,-8.380559E-1,-1.9650805E0,1.1293339E0,7.838238E-1,5.339415E-1,2.3823743E0,4.171755E-1,-2.216717E-1,1.9144515E-3,-2.0559003E0,-6.9540405E-1,-3.3446107E0,-3.0183332E0,-8.370491E-1,8.9958525E-1,1.4228712E-1,-2.3215622E-2,-2.0000277E0,1.9600757E0,3.8043034E0,3.972323E0,2.6901968E0],"split_indices":[74,21,61,71,83,2,40,92,24,41,2,41,41,51,88,66,52,0,41,51,2,1,40,1,0,44,13,41,7,87,27,0,0,0,0,0,0,0,0,0,0,0,0,0,0,0,0,0,0,0,0,0,0,0,0,0,0,0,0,0,0,0,0],"split_type":[0,0,0,0,0,0,0,0,0,0,0,0,0,0,0,0,0,0,0,0,0,0,0,0,0,0,0,0,0,0,0,0,0,0,0,0,0,0,0,0,0,0,0,0,0,0,0,0,0,0,0,0,0,0,0,0,0,0,0,0,0,0,0],"sum_hessian":[3.867189E6,3.693572E6,1.73617E5,1.607461E6,2.086111E6,1.10541E5,6.3076E4,1.476713E6,1.30748E5,7.32712E5,1.353399E6,7.993E4,3.0611E4,5.9083E4,3.993E3,1.440589E6,3.6124E4,5.0943E4,7.9805E4,7.14365E5,1.8347E4,1.052443E6,3.00956E5,7.4346E4,5.584E3,2.9054E4,1.557E3,5.2732E4,6.351E3,2.96E3,1.033E3,1.402386E6,3.8203E4,2.8913E4,7.211E3,1.4062E4,3.6881E4,7.6427E4,3.378E3,7.04535E5,9.83E3,1.4532E4,3.815E3,5.90322E5,4.62121E5,2.96813E5,4.143E3,4.632E4,2.8026E4,2.439E3,3.145E3,2.8259E4,7.95E2,1.451E3,1.06E2,4.0603E4,1.2129E4,5.072E3,1.279E3,2.43E3,5.3E2,7.53E2,2.8E2],"tree_param":{"num_deleted":"0","num_feature":"103","num_nodes":"63","size_leaf_vector":"0"}},{"base_weights":[3.4860682E0,3.7600296E0,1.4407114E0,3.8835688E0,-6.2491145E-2,6.403207E-1,2.628314E0,4.049778E0,1.1275114E0,6.7326075E-1,-4.7590675E0,-1.0445161E0,1.7286074E0,2.1261315E0,5.1758885E0,4.0825367E0,-7.562721E0,1.4412719E0,-6.6975145E0,1.3975352E0,-1.4068427E0,-5.028407E0,5.715242E0,-1.5051894E0,8.563463E0,2.485584E0,3.2097524E-1,1.4653715E0,3.6066532E0,4.535783E0,7.218849E0,4.1239867E0,-4.5375533E0,-3.5389535E0,-1.0141608E1,9.372427E-1,4.9311013E0,-4.678883E0,-1.116437E1,1.7177324E0,-5.181457E0,-1.8273573E0,5.885962E0,-4.052565E0,-7.323514E0,4.6547046E0,1.3298348E1,-1.8387862E0,7.72727E0,5.221355E0,1.0023675E1,1.918139E0,4.4003973E0,6.245613E-1,-3.276779E0,1.6161923E0,-3.87851E0,3.1339984E0,5.455658E0,3.8447378E0,7.212386E0,7.509502E0,3.8956227E0],"categories":[],"categories_nodes":[],"categories_segments":[],"categories_sizes":[],"default_left":[1,1,1,1,1,1,1,1,1,1,1,1,1,1,1,1,1,1,1,1,1,1,1,1,1,1,1,1,1,1,1,0,0,0,0,0,0,0,0,0,0,0,0,0,0,0,0,0,0,0,0,0,0,0,0,0,0,0,0,0,0,0,0],"id":13,"left_children":[1,3,5,7,9,11,13,15,17,19,21,23,25,27,29,31,33,35,37,39,41,43,45,47,49,51,53,55,57,59,61,-1,-1,-1,-1,-1,-1,-1,-1,-1,-1,-1,-1,-1,-1,-1,-1,-1,-1,-1,-1,-1,-1,-1,-1,-1,-1,-1,-1,-1,-1,-1,-1],"loss_changes":[2.166968E6,1.610492E6,4.3420788E5,1.513328E6,3.6894853E5,5.0036528E5,2.3527762E5,1.18528E6,4.613413E5,1.3907306E5,4.0825344E4,4.740215E5,1.7666222E5,1.5028719E5,3.9568688E4,1.110152E6,9.091722E4,3.177685E5,6.5266438E4,1.4424611E5,7.312467E4,3.1547281E4,2.8574062E3,3.1476338E5,2.3860562E4,1.1713919E5,6.3330516E4,8.562022E4,4.1413812E4,4.2627125E4,6.9474688E3,0E0,0E0,0E0,0E0,0E0,0E0,0E0,0E0,0E0,0E0,0E0,0E0,0E0,0E0,0E0,0E0,0E0,0E0,0E0,0E0,0E0,0E0,0E0,0E0,0E0,0E0,0E0,0E0,0E0,0E0,0E0,0E0],"parents":[2147483647,0,0,1,1,2,2,3,3,4,4,5,5,6,6,7,7,8,8,9,9,10,10,11,11,12,12,13,13,14,14,15,15,16,16,17,17,18,18,19,19,20,20,21,21,22,22,23,23,24,24,25,25,26,26,27,27,28,28,29,29,30,30],"right_children":[2,4,6,8,10,12,14,16,18,20,22,24,26,28,30,32,34,36,38,40,42,44,46,48,50,52,54,56,58,60,62,-1,-1,-1,-1,-1,-1,-1,-1,-1,-1,-1,-1,-1,-1,-1,-1,-1,-1,-1,-1,-1,-1,-1,-1,-1,-1,-1,-1,-1,-1,-1,-1],"split_conditions":[5E-1,5E-1,5E-1,5E-1,5E-1,5E-1,5E-1,5E-1,5E-1,5E-1,5E-1,5E-1,3.1225002E-1,5E-1,5E-1,5E-1,1.8727586E-1,5E-1,2.4846551E-1,5E-1,5E-1,5E-1,5E-1,5E-1,5E-1,5E-1,5E-1,5E-1,5E-1,5E-1,5E-1,8.2479733E-1,-9.075107E-1,-7.0779073E-1,-2.0283217E0,1.8744855E-1,9.862203E-1,-9.3577665E-1,-2.232874E0,3.4354648E-1,-1.0362915E0,-3.6547145E-1,1.1771924E0,-8.10513E-1,-1.4647028E0,9.309409E-1,2.6596696E0,-3.6775726E-1,1.545454E0,1.044271E0,2.004735E0,3.836278E-1,8.8007945E-1,1.2491226E-1,-6.553558E-1,3.2323846E-1,-7.75702E-1,6.267997E-1,1.0911316E0,7.6894754E-1,1.4424772E0,1.5019004E0,7.7912456E-1],"split_indices":[35,92,58,91,6,48,61,45,41,98,4,40,0,3,88,44,0,65,0,51,52,41,28,52,67,88,74,92,88,87,6,0,0,0,0,0,0,0,0,0,0,0,0,0,0,0,0,0,0,0,0,0,0,0,0,0,0,0,0,0,0,0,0],"split_type":[0,0,0,0,0,0,0,0,0,0,0,0,0,0,0,0,0,0,0,0,0,0,0,0,0,0,0,0,0,0,0,0,0,0,0,0,0,0,0,0,0,0,0,0,0,0,0,0,0,0,0,0,0,0,0,0,0,0,0,0,0,0,0],"sum_hessian":[3.867189E6,3.41039E6,4.56799E5,3.303621E6,1.06769E5,2.72887E5,1.83912E5,3.115721E6,1.879E5,9.2309E4,1.446E4,1.07092E5,1.65795E5,1.5363E5,3.0282E4,3.106957E6,8.764E3,1.80657E5,7.243E3,6.8469E4,2.384E4,1.4098E4,3.62E2,1.02193E5,4.899E3,1.07815E5,5.798E4,1.06224E5,4.7406E4,2.306E4,7.222E3,3.092089E6,1.4868E4,3.424E3,5.34E3,1.57859E5,2.2798E4,4.99E3,2.253E3,6.5292E4,3.177E3,2.2541E4,1.299E3,9.894E3,4.204E3,3.19E2,4.3E1,9.863E4,3.563E3,1.491E3,3.408E3,8.317E4,2.4645E4,5.3469E4,4.511E3,1.03309E5,2.915E3,3.7757E4,9.649E3,1.833E4,4.73E3,6.64E3,5.82E2],"tree_param":{"num_deleted":"0","num_feature":"103","num_nodes":"63","size_leaf_vector":"0"}},{"base_weights":[2.7888553E0,2.4440305E0,4.0991774E0,2.7244341E0,8.544871E-1,4.5652194E0,2.9180307E0,2.8001673E0,-4.3640122E0,2.482648E0,-2.802112E-1,5.27372E0,3.5693254E0,3.4496E0,7.7481604E-1,2.843692E0,-8.342624E0,-2.6896172E0,-5.552364E0,2.170715E0,1.0270316E1,5.380597E-1,-3.981947E0,5.1503844E0,9.311986E0,3.8228056E0,-3.6443764E-1,5.0923333E0,2.9568503E0,1.058254E0,-8.107803E0,2.9652681E0,-4.4239137E-1,-2.6020672E0,-9.147195E0,-2.041514E0,-5.552232E0,-5.011279E0,-9.610137E0,-2.0116296E0,2.6841147E0,8.530687E0,1.280819E1,-1.3603092E0,1.0472548E0,-7.460331E0,-2.7529848E0,5.406733E0,4.0008383E0,9.499919E0,-9.3871504E-1,3.875979E0,-2.9972806E0,1.7845132E0,-2.8720264E0,6.2344456E0,2.3244867E0,3.0458484E0,-6.771967E0,8.8592386E-1,5.532682E0,-7.4585433E0,-2.3285816E1],"categories":[],"categories_nodes":[],"categories_segments":[],"categories_sizes":[],"default_left":[1,1,1,1,1,1,1,1,1,1,1,1,1,1,1,1,1,1,1,1,1,1,1,1,1,1,1,1,1,1,1,0,0,0,0,0,0,0,0,0,0,0,0,0,0,0,0,0,0,0,0,0,0,0,0,0,0,0,0,0,0,0,0],"id":14,"left_children":[1,3,5,7,9,11,13,15,17,19,21,23,25,27,29,31,33,35,37,39,41,43,45,47,49,51,53,55,57,59,61,-1,-1,-1,-1,-1,-1,-1,-1,-1,-1,-1,-1,-1,-1,-1,-1,-1,-1,-1,-1,-1,-1,-1,-1,-1,-1,-1,-1,-1,-1,-1,-1],"loss_changes":[1.74731E6,1.36456E6,4.43478E5,1.397082E6,8.48147E5,4.07614E5,2.596955E5,1.248828E6,5.4725656E4,4.5799675E5,8.1947694E5,1.6808E5,2.394675E5,1.4783225E5,1.14066625E5,1.024706E6,4.625075E4,2.1179562E4,3.527903E4,3.892633E5,3.194775E4,2.1417505E5,2.093465E5,9.6506E4,1.9279125E4,8.183075E4,7.835122E4,1.3321075E5,1.21678E5,3.3847766E4,1.36324375E4,0E0,0E0,0E0,0E0,0E0,0E0,0E0,0E0,0E0,0E0,0E0,0E0,0E0,0E0,0E0,0E0,0E0,0E0,0E0,0E0,0E0,0E0,0E0,0E0,0E0,0E0,0E0,0E0,0E0,0E0,0E0,0E0],"parents":[2147483647,0,0,1,1,2,2,3,3,4,4,5,5,6,6,7,7,8,8,9,9,10,10,11,11,12,12,13,13,14,14,15,15,16,16,17,17,18,18,19,19,20,20,21,21,22,22,23,23,24,24,25,25,26,26,27,27,28,28,29,29,30,30],"right_children":[2,4,6,8,10,12,14,16,18,20,22,24,26,28,30,32,34,36,38,40,42,44,46,48,50,52,54,56,58,60,62,-1,-1,-1,-1,-1,-1,-1,-1,-1,-1,-1,-1,-1,-1,-1,-1,-1,-1,-1,-1,-1,-1,-1,-1,-1,-1,-1,-1,-1,-1,-1,-1],"split_conditions":[5E-1,5E-1,5E-1,5E-1,2.1725862E-1,5E-1,5E-1,5E-1,5E-1,5E-1,5E-1,5E-1,5E-1,5E-1,5E-1,5E-1,1.20793104E-1,5E-1,3.362931E-1,5E-1,5E-1,5E-1,5E-1,5E-1,5E-1,5E-1,1.9322413E-1,5E-1,5E-1,5E-1,5E-1,5.9305364E-1,-8.8478275E-2,-5.2041346E-1,-1.829439E0,-4.0830278E-1,-1.1104463E0,-1.0022558E0,-1.9220275E0,-4.0232593E-1,5.36823E-1,1.7061375E0,2.561638E0,-2.7206185E-1,2.0945096E-1,-1.4920663E0,-5.5059695E-1,1.0813466E0,8.001677E-1,1.8999838E0,-1.8774301E-1,7.751958E-1,-5.9945613E-1,3.5690266E-1,-5.744053E-1,1.2468891E0,4.6489736E-1,6.0916966E-1,-1.3543934E0,1.7718478E-1,1.1065364E0,-1.4917086E0,-4.657163E0],"split_indices":[88,6,2,42,0,1,62,45,75,4,41,4,41,60,41,49,0,2,0,83,64,75,75,6,66,42,0,6,41,52,7,0,0,0,0,0,0,0,0,0,0,0,0,0,0,0,0,0,0,0,0,0,0,0,0,0,0,0,0,0,0,0,0],"split_type":[0,0,0,0,0,0,0,0,0,0,0,0,0,0,0,0,0,0,0,0,0,0,0,0,0,0,0,0,0,0,0,0,0,0,0,0,0,0,0,0,0,0,0,0,0,0,0,0,0,0,0,0,0,0,0,0,0,0,0,0,0,0,0],"sum_hessian":[3.867189E6,3.061521E6,8.05668E5,2.602437E6,4.59084E5,5.77717E5,2.27951E5,2.574927E6,2.751E4,1.88544E5,2.7054E5,3.37563E5,2.40154E5,1.82649E5,4.5302E4,2.564909E6,1.0018E4,1.1421E4,1.6089E4,1.81284E5,7.26E3,2.21564E5,4.8976E4,3.27561E5,1.0002E4,2.25616E5,1.4538E4,4.2143E4,1.40506E5,4.3902E4,1.4E3,2.4734E6,9.1509E4,1.232E3,8.786E3,9.314E3,2.107E3,1.4198E4,1.891E3,1.982E4,1.61464E5,4.31E3,2.95E3,4.686E4,1.74704E5,1.2785E4,3.6191E4,2.67831E5,5.973E4,9.822E3,1.8E2,2.23871E5,1.745E3,7.829E3,6.709E3,2.9832E4,1.2311E4,1.39233E5,1.273E3,4.2275E4,1.627E3,1.344E3,5.6E1],"tree_param":{"num_deleted":"0","num_feature":"103","num_nodes":"63","size_leaf_vector":"0"}},{"base_weights":[2.2310836E0,2.370051E0,-4.2830345E-1,2.4759371E0,-7.4371433E-1,-5.023513E-1,9.165332E0,2.618994E0,1.7439762E-1,-3.8436294E-1,-7.4535913E0,-1.2124311E-2,-1.9243965E0,6.775469E0,1.0922884E1,2.2138965E0,3.3573074E0,4.3553722E-1,-6.2274203E0,-1.14396244E-1,-5.2395897E0,-6.5780444E0,-2.0905462E1,-9.854866E-2,7.561445E0,-3.1834142E0,-3.7058532E-1,7.6214547E0,-3.8085134E0,1.1105883E1,7.3573494E-1,1.8732709E0,3.5317357E0,3.4241567E0,-1.7113531E0,1.0908662E-1,4.2298174E0,-5.567121E0,-1.924955E1,1.0668249E0,-1.4632503E0,-6.2972403E0,-5.1794505E-1,-5.8573537E0,-1.3168145E1,-2.3745888E1,-1.1371964E1,-6.636708E-1,9.0276116E-1,8.815202E0,7.609129E-1,-6.143707E0,-1.9138101E0,5.2132624E-1,-2.4256046E0,7.0123615E0,1.4707064E1,-1.5400207E0,-1.3215481E1,1.2158921E1,8.908979E0,-7.3686743E0,4.051261E0],"categories":[],"categories_nodes":[],"categories_segments":[],"categories_sizes":[],"default_left":[1,1,1,1,1,1,1,1,1,1,1,1,1,1,1,1,1,1,1,1,1,1,1,1,1,1,1,1,1,1,1,0,0,0,0,0,0,0,0,0,0,0,0,0,0,0,0,0,0,0,0,0,0,0,0,0,0,0,0,0,0,0,0],"id":15,"left_children":[1,3,5,7,9,11,13,15,17,19,21,23,25,27,29,31,33,35,37,39,41,43,45,47,49,51,53,55,57,59,61,-1,-1,-1,-1,-1,-1,-1,-1,-1,-1,-1,-1,-1,-1,-1,-1,-1,-1,-1,-1,-1,-1,-1,-1,-1,-1,-1,-1,-1,-1,-1,-1],"loss_changes":[1.429192E6,1.211714E6,1.3643242E5,1.17025E6,2.9143206E5,1.3285594E5,6.104664E3,1.000826E6,3.477238E5,1.5037383E5,7.222494E4,9.276357E4,9.557464E4,5.634164E3,1.5689609E3,9.69926E5,4.01712E5,2.475366E5,6.998784E4,1.7316405E5,3.0174578E4,2.7327047E4,9.884656E3,7.92915E4,1.3626711E4,1.0141994E5,4.008485E4,2.4000312E3,9.826108E2,1.8141328E3,4.597785E2,0E0,0E0,0E0,0E0,0E0,0E0,0E0,0E0,0E0,0E0,0E0,0E0,0E0,0E0,0E0,0E0,0E0,0E0,0E0,0E0,0E0,0E0,0E0,0E0,0E0,0E0,0E0,0E0,0E0,0E0,0E0,0E0],"parents":[2147483647,0,0,1,1,2,2,3,3,4,4,5,5,6,6,7,7,8,8,9,9,10,10,11,11,12,12,13,13,14,14,15,15,16,16,17,17,18,18,19,19,20,20,21,21,22,22,23,23,24,24,25,25,26,26,27,27,28,28,29,29,30,30],"right_children":[2,4,6,8,10,12,14,16,18,20,22,24,26,28,30,32,34,36,38,40,42,44,46,48,50,52,54,56,58,60,62,-1,-1,-1,-1,-1,-1,-1,-1,-1,-1,-1,-1,-1,-1,-1,-1,-1,-1,-1,-1,-1,-1,-1,-1,-1,-1,-1,-1,-1,-1,-1,-1],"split_conditions":[5E-1,5E-1,5E-1,5E-1,5E-1,5E-1,5E-1,5E-1,5E-1,5E-1,5E-1,5E-1,5E-1,5E-1,5E-1,5E-1,5E-1,5E-1,5E-1,3.175345E-1,5E-1,3.5651726E-1,5E-1,5E-1,5E-1,5E-1,5E-1,5E-1,5E-1,9.396552E-1,5E-1,3.7465417E-1,7.0634717E-1,6.848313E-1,-3.422706E-1,2.1817325E-2,8.459635E-1,-1.1134242E0,-3.84991E0,2.1336499E-1,-2.9265007E-1,-1.259448E0,-1.0358901E-1,-1.1714708E0,-2.633629E0,-4.7491775E0,-2.2743928E0,-1.3273416E-1,1.8055223E-1,1.7630404E0,1.5218258E-1,-1.2287414E0,-3.8276204E-1,1.0426525E-1,-4.8512092E-1,1.4024724E0,2.9414127E0,-3.0800414E-1,-2.6430962E0,2.4317844E0,1.7817959E0,-1.4737349E0,8.102522E-1],"split_indices":[66,92,52,91,41,2,24,3,41,51,7,40,58,35,94,61,42,52,7,0,65,0,23,58,35,48,62,22,62,0,7,0,0,0,0,0,0,0,0,0,0,0,0,0,0,0,0,0,0,0,0,0,0,0,0,0,0,0,0,0,0,0,0],"split_type":[0,0,0,0,0,0,0,0,0,0,0,0,0,0,0,0,0,0,0,0,0,0,0,0,0,0,0,0,0,0,0,0,0,0,0,0,0,0,0,0,0,0,0,0,0,0,0,0,0,0,0,0,0,0,0,0,0,0,0,0,0,0,0],"sum_hessian":[3.867189E6,3.675143E6,1.92046E5,3.554277E6,1.20866E5,1.90576E5,1.47E3,3.346282E6,2.07995E5,1.14723E5,6.143E3,1.41721E5,4.8855E4,6.25E2,8.45E2,2.160735E6,1.185547E6,1.99844E5,8.151E3,1.08681E5,6.042E3,5.769E3,3.74E2,1.40123E5,1.598E3,2.6987E4,2.1868E4,5.79E2,4.6E1,8.3E2,1.5E1,1.716952E6,4.43783E5,1.170115E6,1.5432E4,1.84013E5,1.5831E4,7.759E3,3.92E2,5.7941E4,5.074E4,4.936E3,1.106E3,5.202E3,5.67E2,2.87E2,8.7E1,8.9571E4,5.0552E4,1.349E3,2.49E2,8.099E3,1.8888E4,1.525E4,6.618E3,5.35E2,4.4E1,3.8E1,8E0,5.58E2,2.72E2,4E0,1.1E1],"tree_param":{"num_deleted":"0","num_feature":"103","num_nodes":"63","size_leaf_vector":"0"}},{"base_weights":[1.784865E0,1.9901478E0,2.522544E-1,2.1229222E0,-1.0438653E-1,-8.3585125E-1,7.306789E-1,2.0567796E0,6.020352E0,-6.371981E-1,1.2804425E0,-6.6271085E-1,-6.7730017E0,1.0258255E0,-1.2698224E0,2.159275E0,-4.876651E-1,4.98539E0,8.6427965E0,2.173969E-1,-1.4417664E0,1.1691442E0,6.957119E0,-4.1485456E-1,-4.042E0,-9.094237E0,-3.6335135E0,1.5875415E0,3.917613E-3,-2.393514E0,1.7352965E-1,2.7326477E0,1.6737434E0,-2.5971918E0,5.396697E-1,2.5851376E0,5.59044E0,9.915797E0,6.8960752E0,6.1560875E-1,-1.6789291E0,-1.2693117E0,-9.191501E0,2.4657092E0,6.320671E-1,7.358634E0,2.7874584E0,-3.3987808E-1,-1.0802656E1,-3.8267837E0,-1.2186945E1,-8.614979E0,-2.3618572E1,-3.254037E0,-1.3496384E1,1.1619134E0,2.7916558E0,1.8882379E-1,-6.659759E0,-4.5153713E0,-1.4419634E0,1.4081792E0,-8.753522E-1],"categories":[],"categories_nodes":[],"categories_segments":[],"categories_sizes":[],"default_left":[1,1,1,1,1,1,1,1,1,1,1,1,1,1,1,1,1,1,1,1,1,1,1,1,1,1,1,1,1,1,1,0,0,0,0,0,0,0,0,0,0,0,0,0,0,0,0,0,0,0,0,0,0,0,0,0,0,0,0,0,0,0,0],"id":16,"left_children":[1,3,5,7,9,11,13,15,17,19,21,23,25,27,29,31,33,35,37,39,41,43,45,47,49,51,53,55,57,59,61,-1,-1,-1,-1,-1,-1,-1,-1,-1,-1,-1,-1,-1,-1,-1,-1,-1,-1,-1,-1,-1,-1,-1,-1,-1,-1,-1,-1,-1,-1,-1,-1],"loss_changes":[1.216689E6,9.48431E5,2.3779994E5,8.26728E5,1.5000706E5,1.4340525E5,1.8734348E5,8.22433E5,1.4521162E5,1.0094737E5,3.5680617E4,1.135379E5,2.8774406E4,1.587165E5,6.6163484E4,8.43925E5,2.646457E5,5.5718E4,3.3603125E4,5.376319E4,1.0105411E5,3.8577914E4,1.7976523E3,9.836003E4,1.61906875E4,1.5611703E4,6.2513496E3,9.143991E4,1.20846086E5,4.6304547E4,2.312737E4,0E0,0E0,0E0,0E0,0E0,0E0,0E0,0E0,0E0,0E0,0E0,0E0,0E0,0E0,0E0,0E0,0E0,0E0,0E0,0E0,0E0,0E0,0E0,0E0,0E0,0E0,0E0,0E0,0E0,0E0,0E0,0E0],"parents":[2147483647,0,0,1,1,2,2,3,3,4,4,5,5,6,6,7,7,8,8,9,9,10,10,11,11,12,12,13,13,14,14,15,15,16,16,17,17,18,18,19,19,20,20,21,21,22,22,23,23,24,24,25,25,26,26,27,27,28,28,29,29,30,30],"right_children":[2,4,6,8,10,12,14,16,18,20,22,24,26,28,30,32,34,36,38,40,42,44,46,48,50,52,54,56,58,60,62,-1,-1,-1,-1,-1,-1,-1,-1,-1,-1,-1,-1,-1,-1,-1,-1,-1,-1,-1,-1,-1,-1,-1,-1,-1,-1,-1,-1,-1,-1,-1,-1],"split_conditions":[5E-1,5E-1,5E-1,5E-1,5E-1,5E-1,5E-1,5E-1,5E-1,2.9322416E-1,5E-1,5E-1,5E-1,2.8146553E-1,5E-1,5E-1,5E-1,5E-1,5E-1,5E-1,5E-1,2.4646552E-1,5E-1,5E-1,5E-1,5E-1,5E-1,5E-1,5E-1,5E-1,5E-1,5.4652953E-1,3.347487E-1,-5.194384E-1,1.0793394E-1,5.1702756E-1,1.118088E0,1.9831594E0,1.3792151E0,1.2312175E-1,-3.3578584E-1,-2.5386235E-1,-1.8383001E0,4.9314186E-1,1.2641342E-1,1.4717268E0,5.574917E-1,-6.797562E-2,-2.1605313E0,-7.653567E-1,-2.4373891E0,-1.7229958E0,-4.7237144E0,-6.508074E-1,-2.6992767E0,2.3238268E-1,5.583312E-1,3.7764758E-2,-1.3319519E0,-9.0307426E-1,-2.883927E-1,2.8163585E-1,-1.7507045E-1],"split_indices":[35,31,83,40,24,41,62,74,12,0,52,74,3,0,58,21,83,83,27,2,41,0,92,45,44,7,7,88,41,48,2,0,0,0,0,0,0,0,0,0,0,0,0,0,0,0,0,0,0,0,0,0,0,0,0,0,0,0,0,0,0,0,0],"split_type":[0,0,0,0,0,0,0,0,0,0,0,0,0,0,0,0,0,0,0,0,0,0,0,0,0,0,0,0,0,0,0,0,0,0,0,0,0,0,0,0,0,0,0,0,0,0,0,0,0,0,0,0,0,0,0,0,0,0,0,0,0,0,0],"sum_hessian":[3.867189E6,3.41039E6,4.56799E5,3.20709E6,2.033E5,1.39508E5,3.17291E5,3.153573E6,5.3517E4,1.46814E5,5.6486E4,1.35556E5,3.952E3,2.76498E5,4.0793E4,3.03146E6,1.22113E5,3.8375E4,1.5142E4,7.1194E4,7.562E4,5.5401E4,1.085E3,1.26294E5,9.262E3,2.271E3,1.681E3,1.78423E5,9.8075E4,2.2936E4,1.7857E4,1.389991E6,1.641469E6,3.9992E4,8.2121E4,7.727E3,3.0648E4,8.756E3,6.386E3,5.8839E4,1.2355E4,7.3975E4,1.645E3,1.6226E4,3.9175E4,9.89E2,9.6E1,1.2539E5,9.04E2,9.025E3,2.37E2,2.2E3,7.1E1,1.62E3,6.1E1,1.31827E5,4.6596E4,9.5428E4,2.647E3,7.1E3,1.5836E4,8.202E3,9.655E3],"tree_param":{"num_deleted":"0","num_feature":"103","num_nodes":"63","size_leaf_vector":"0"}},{"base_weights":[1.4278892E0,1.4665377E0,-5.238518E0,1.6829892E0,2.7310282E-1,-3.7673926E0,-1.0435909E1,1.7743514E0,-2.4044385E0,1.5296122E0,-6.6591394E-1,-3.1470828E0,-6.469542E0,-1.0942686E1,1.8920026E0,1.8282164E0,-3.5311713E0,-2.7222827E-1,-6.1861405E0,1.2771355E0,7.5193977E0,-2.8717691E-2,-3.3892698E0,-2.1830509E0,-4.387693E0,-9.348441E0,-5.198522E0,-1.33334465E1,-9.207573E0,8.5829085E-1,1.4239324E1,1.8607385E0,-6.9461045E0,-3.0472271E0,-6.466983E0,6.108212E-1,-3.5384982E0,-6.9241533E0,1.816341E0,-2.0557644E0,1.6141009E0,6.1540523E0,9.494269E0,-1.3867582E-1,6.274485E0,-4.6597104E0,-1.0837047E0,1.246708E-1,-2.7053046E0,-4.15992E0,-9.598856E0,-1.112577E1,-7.174242E0,-4.5126815E0,-7.257779E0,-1.4792587E1,-1.0053617E1,-1.291719E1,-7.6467247E0,-5.665925E0,3.1889184E0,1.8435726E1,4.872097E0],"categories":[],"categories_nodes":[],"categories_segments":[],"categories_sizes":[],"default_left":[1,1,1,1,1,1,1,1,1,1,1,1,1,1,1,1,1,1,1,1,1,1,1,1,1,1,1,1,1,1,1,0,0,0,0,0,0,0,0,0,0,0,0,0,0,0,0,0,0,0,0,0,0,0,0,0,0,0,0,0,0,0,0],"id":17,"left_children":[1,3,5,7,9,11,13,15,17,19,21,23,25,27,29,31,33,35,37,39,41,43,45,47,49,51,53,55,57,59,61,-1,-1,-1,-1,-1,-1,-1,-1,-1,-1,-1,-1,-1,-1,-1,-1,-1,-1,-1,-1,-1,-1,-1,-1,-1,-1,-1,-1,-1,-1,-1,-1],"loss_changes":[9.96375E5,9.93218E5,1.70398E5,1.215394E6,6.964696E5,2.9103062E4,3.0739688E4,9.09783E5,5.737645E5,3.8178544E5,5.8622994E5,1.6893328E4,1.1817984E4,1.9469375E4,2.4766746E3,8.99313E5,4.543922E4,1.3124547E5,1.5152931E5,2.7207084E5,2.7474312E4,1.897477E5,1.8761744E5,9.587832E3,7.2942812E3,3.7535312E3,3.1477969E3,9.346219E3,1.5766203E4,2.7702666E3,4.9980933E2,0E0,0E0,0E0,0E0,0E0,0E0,0E0,0E0,0E0,0E0,0E0,0E0,0E0,0E0,0E0,0E0,0E0,0E0,0E0,0E0,0E0,0E0,0E0,0E0,0E0,0E0,0E0,0E0,0E0,0E0,0E0,0E0],"parents":[2147483647,0,0,1,1,2,2,3,3,4,4,5,5,6,6,7,7,8,8,9,9,10,10,11,11,12,12,13,13,14,14,15,15,16,16,17,17,18,18,19,19,20,20,21,21,22,22,23,23,24,24,25,25,26,26,27,27,28,28,29,29,30,30],"right_children":[2,4,6,8,10,12,14,16,18,20,22,24,26,28,30,32,34,36,38,40,42,44,46,48,50,52,54,56,58,60,62,-1,-1,-1,-1,-1,-1,-1,-1,-1,-1,-1,-1,-1,-1,-1,-1,-1,-1,-1,-1,-1,-1,-1,-1,-1,-1,-1,-1,-1,-1,-1,-1],"split_conditions":[5E-1,5E-1,5E-1,5E-1,2.1384484E-1,3.5544828E-1,5E-1,5E-1,5E-1,5E-1,5E-1,5E-1,5E-1,5E-1,5E-1,5E-1,5E-1,5E-1,5E-1,5E-1,5E-1,5E-1,5E-1,2.0460345E-1,5E-1,5E-1,4.868069E-1,5E-1,5E-1,5E-1,5E-1,3.721477E-1,-1.389221E0,-6.0944545E-1,-1.2933966E0,1.2216424E-1,-7.0769966E-1,-1.3848307E0,3.6326823E-1,-4.111529E-1,3.228202E-1,1.2308105E0,1.8988539E0,-2.7735164E-2,1.254897E0,-9.319421E-1,-2.1674095E-1,2.4934161E-2,-5.410609E-1,-8.3198404E-1,-1.9197712E0,-2.225154E0,-1.4348484E0,-9.0253633E-1,-1.4515558E0,-2.9585176E0,-2.0107234E0,-2.583438E0,-1.5293449E0,-1.133185E0,6.377837E-1,3.6871452E0,9.744194E-1],"split_indices":[44,6,2,51,0,0,68,42,7,4,41,64,75,75,11,45,2,21,98,83,64,52,95,0,102,21,0,101,100,75,97,0,0,0,0,0,0,0,0,0,0,0,0,0,0,0,0,0,0,0,0,0,0,0,0,0,0,0,0,0,0,0,0],"split_type":[0,0,0,0,0,0,0,0,0,0,0,0,0,0,0,0,0,0,0,0,0,0,0,0,0,0,0,0,0,0,0,0,0,0,0,0,0,0,0,0,0,0,0,0,0,0,0,0,0,0,0,0,0,0,0,0,0,0,0,0,0,0,0],"sum_hessian":[3.867189E6,3.844899E6,2.229E4,3.254614E6,5.90285E5,1.7374E4,4.916E3,3.183458E6,7.1156E4,2.52462E5,3.37823E5,1.4132E4,3.242E3,4.722E3,1.94E2,3.151463E6,3.1995E4,4.5502E4,2.5654E4,2.42252E5,1.021E4,2.73769E5,6.4054E4,7.954E3,6.178E3,9.91E2,2.251E3,1.983E3,2.739E3,1.8E2,1.4E1,3.139826E6,1.1637E4,2.7469E4,4.526E3,3.5819E4,9.683E3,2.3488E4,2.166E3,2.2243E4,2.20009E5,6.039E3,4.171E3,2.69076E5,4.693E3,4.1297E4,2.2757E4,1.468E3,6.486E3,5.921E3,2.57E2,5.43E2,4.48E2,1.691E3,5.6E2,1.37E3,6.13E2,8.09E2,1.93E3,4.7E1,1.33E2,9E0,5E0],"tree_param":{"num_deleted":"0","num_feature":"103","num_nodes":"63","size_leaf_vector":"0"}},{"base_weights":[1.1423082E0,1.0083692E0,2.929569E0,7.559734E-1,2.0220087E0,2.0580485E0,3.5323114E0,5.75001E-1,2.444658E0,2.965018E0,1.6078765E0,1.9837474E0,6.272987E0,3.6632135E0,-4.487796E0,-1.3141008E-1,1.2393234E0,6.58648E0,2.0282345E0,2.7824774E0,6.1991153E0,1.7467428E0,-2.940781E0,2.104947E0,-1.699303E-1,7.197645E0,-2.3312294E0,2.9917471E0,4.3244185E0,-5.1649294E0,5.168562E-1,3.3585012E-1,-1.6395174E0,1.6065179E0,3.7465772E-1,6.928376E0,3.0823793E0,2.0745788E0,7.545813E-1,3.035051E0,1.205099E0,4.999081E0,8.608397E0,1.9282024E0,1.6411607E-1,-2.4754276E0,-1.5607364E1,2.2585292E0,4.2047903E-1,2.7275237E-1,-4.9745517E0,8.806634E0,5.911001E0,-1.5247643E0,-1.2130318E1,2.8756552E0,8.12878E0,4.9701004E0,3.2579882E0,-5.531108E0,3.1278882E0,7.005468E0,-8.3910155E-1],"categories":[],"categories_nodes":[],"categories_segments":[],"categories_sizes":[],"default_left":[1,1,1,1,1,1,1,1,1,1,1,1,1,1,1,1,1,1,1,1,1,1,1,1,1,1,1,1,1,1,1,0,0,0,0,0,0,0,0,0,0,0,0,0,0,0,0,0,0,0,0,0,0,0,0,0,0,0,0,0,0,0,0],"id":18,"left_children":[1,3,5,7,9,11,13,15,17,19,21,23,25,27,29,31,33,35,37,39,41,43,45,47,49,51,53,55,57,59,61,-1,-1,-1,-1,-1,-1,-1,-1,-1,-1,-1,-1,-1,-1,-1,-1,-1,-1,-1,-1,-1,-1,-1,-1,-1,-1,-1,-1,-1,-1,-1,-1],"loss_changes":[9.257405E5,9.2039825E5,1.416175E5,8.802565E5,2.80088E5,3.45085E4,1.673395E5,1.220878E6,4.8085438E5,1.2918525E5,3.1479438E5,2.8274906E4,1.5204711E4,6.961075E4,8.678047E3,8.884917E5,4.2568112E5,3.0492625E4,1.49519375E4,8.253175E4,3.3761094E4,1.3887912E5,8.698685E4,2.6529125E4,1.2277955E4,3.5169531E3,1.4513921E3,4.63795E4,5.4388875E4,6.864949E3,2.698153E3,0E0,0E0,0E0,0E0,0E0,0E0,0E0,0E0,0E0,0E0,0E0,0E0,0E0,0E0,0E0,0E0,0E0,0E0,0E0,0E0,0E0,0E0,0E0,0E0,0E0,0E0,0E0,0E0,0E0,0E0,0E0,0E0],"parents":[2147483647,0,0,1,1,2,2,3,3,4,4,5,5,6,6,7,7,8,8,9,9,10,10,11,11,12,12,13,13,14,14,15,15,16,16,17,17,18,18,19,19,20,20,21,21,22,22,23,23,24,24,25,25,26,26,27,27,28,28,29,29,30,30],"right_children":[2,4,6,8,10,12,14,16,18,20,22,24,26,28,30,32,34,36,38,40,42,44,46,48,50,52,54,56,58,60,62,-1,-1,-1,-1,-1,-1,-1,-1,-1,-1,-1,-1,-1,-1,-1,-1,-1,-1,-1,-1,-1,-1,-1,-1,-1,-1,-1,-1,-1,-1,-1,-1],"split_conditions":[5E-1,5E-1,5E-1,5E-1,2.1376207E-1,5E-1,5E-1,5E-1,5E-1,5E-1,5E-1,5E-1,5E-1,5E-1,5E-1,5E-1,5E-1,5E-1,5E-1,5E-1,5E-1,5E-1,5E-1,5E-1,5E-1,5E-1,5E-1,5E-1,5E-1,5E-1,1.0517241E-1,6.7170024E-2,-3.2790348E-1,3.2130358E-1,7.493155E-2,1.3856753E0,6.164759E-1,4.1491577E-1,1.5091626E-1,6.0701025E-1,2.410198E-1,9.9981624E-1,1.7216793E0,3.8564047E-1,3.2823216E-2,-4.9508554E-1,-3.1214728E0,4.5170584E-1,8.4095806E-2,5.4550476E-2,-9.9491036E-1,1.7613268E0,1.1822003E0,-3.0495286E-1,-2.4260635E0,5.7513106E-1,1.6257561E0,9.940201E-1,6.515977E-1,-1.1062216E0,6.255776E-1,1.4010936E0,-1.6782032E-1],"split_indices":[68,88,7,52,0,52,51,58,86,40,41,92,86,12,11,2,2,92,62,62,12,62,7,91,2,27,92,52,27,98,0,0,0,0,0,0,0,0,0,0,0,0,0,0,0,0,0,0,0,0,0,0,0,0,0,0,0,0,0,0,0,0,0],"split_type":[0,0,0,0,0,0,0,0,0,0,0,0,0,0,0,0,0,0,0,0,0,0,0,0,0,0,0,0,0,0,0,0,0,0,0,0,0,0,0,0,0,0,0,0,0,0,0,0,0,0,0,0,0,0,0,0,0,0,0,0,0,0,0],"sum_hessian":[3.867189E6,3.597584E6,2.69605E5,2.880374E6,7.1721E5,1.10228E5,1.59377E5,2.601571E6,2.78803E5,2.18855E5,4.98355E5,1.0832E5,1.908E3,1.56818E5,2.559E3,1.260845E6,1.340726E6,2.5469E4,2.53334E5,2.07164E5,1.1691E4,4.83592E5,1.4763E4,1.02549E5,5.771E3,1.723E3,1.85E2,7.7808E4,7.901E4,2.254E3,3.05E2,9.62601E5,2.98244E5,9.4108E5,3.99646E5,2.3204E4,2.265E3,2.44439E5,8.895E3,1.7857E5,2.8594E4,7.806E3,3.885E3,4.33848E5,4.9744E4,1.4241E4,5.22E2,9.398E4,8.569E3,5.285E3,4.86E2,7.63E2,9.6E2,1.72E2,1.3E1,7.609E4,1.718E3,4.9211E4,2.9799E4,2.159E3,9.5E1,5.2E1,2.53E2],"tree_param":{"num_deleted":"0","num_feature":"103","num_nodes":"63","size_leaf_vector":"0"}},{"base_weights":[9.138486E-1,9.810164E-1,-2.2207348E0,1.1086998E0,-4.7338495E-1,-1.2256122E0,-3.645899E0,1.2717336E0,-1.4476259E-1,-6.5585357E-1,6.1056566E0,-1.0141597E0,-6.3556204E0,-3.9802916E0,2.2847168E0,1.5182406E0,4.5358878E-1,7.335739E-1,-9.0613204E-1,-1.7942643E0,8.232886E-2,-5.3522835E0,6.194524E0,-7.251814E-1,-3.0528617E0,-5.8484573E0,-1.9273764E1,-5.6059656E0,-2.4486542E0,2.8776252E0,-3.604406E-1,1.6212914E0,-8.1167114E-1,5.608665E-1,-5.2124414E0,9.694231E-1,-2.454008E0,-7.339199E0,-6.8352455E-1,-5.4329724E0,-8.624193E-1,-5.631854E-1,5.3880894E-1,-2.1240857E0,-1.2348114E1,5.7976093E0,8.547529E0,-1.2576189E0,3.6682925E-1,-3.3802416E0,3.3639321E0,-7.03652E0,-4.268028E0,-2.2818804E1,-1.3352712E1,-7.856924E0,-4.607839E0,-1.9834927E0,-5.33524E0,3.3827069E0,1.3038689E-1,1.3444283E0,-2.9214995E0],"categories":[],"categories_nodes":[],"categories_segments":[],"categories_sizes":[],"default_left":[1,1,1,1,1,1,1,1,1,1,1,1,1,1,1,1,1,1,1,1,1,1,1,1,1,1,1,1,1,1,1,0,0,0,0,0,0,0,0,0,0,0,0,0,0,0,0,0,0,0,0,0,0,0,0,0,0,0,0,0,0,0,0],"id":19,"left_children":[1,3,5,7,9,11,13,15,17,19,21,23,25,27,29,31,33,35,37,39,41,43,45,47,49,51,53,55,57,59,61,-1,-1,-1,-1,-1,-1,-1,-1,-1,-1,-1,-1,-1,-1,-1,-1,-1,-1,-1,-1,-1,-1,-1,-1,-1,-1,-1,-1,-1,-1,-1,-1],"loss_changes":[8.142125E5,7.0308325E5,1.1505234E5,7.11265E5,3.6681684E5,5.1815445E4,6.615916E4,6.21151E5,2.6789403E5,2.4984856E5,8.4295625E3,2.7029328E4,1.2276359E4,7.860872E4,2.7942441E3,5.682675E5,4.3346294E5,1.398426E5,3.0729266E5,3.965458E5,5.3146562E4,1.4191425E3,7.5929062E3,2.3366867E4,1.1977125E4,3.3891719E3,1.1856211E3,3.4377156E4,2.182218E4,2.0184883E3,1.4316979E3,0E0,0E0,0E0,0E0,0E0,0E0,0E0,0E0,0E0,0E0,0E0,0E0,0E0,0E0,0E0,0E0,0E0,0E0,0E0,0E0,0E0,0E0,0E0,0E0,0E0,0E0,0E0,0E0,0E0,0E0,0E0,0E0],"parents":[2147483647,0,0,1,1,2,2,3,3,4,4,5,5,6,6,7,7,8,8,9,9,10,10,11,11,12,12,13,13,14,14,15,15,16,16,17,17,18,18,19,19,20,20,21,21,22,22,23,23,24,24,25,25,26,26,27,27,28,28,29,29,30,30],"right_children":[2,4,6,8,10,12,14,16,18,20,22,24,26,28,30,32,34,36,38,40,42,44,46,48,50,52,54,56,58,60,62,-1,-1,-1,-1,-1,-1,-1,-1,-1,-1,-1,-1,-1,-1,-1,-1,-1,-1,-1,-1,-1,-1,-1,-1,-1,-1,-1,-1,-1,-1,-1,-1],"split_conditions":[5E-1,5E-1,5E-1,5E-1,5E-1,5E-1,5E-1,5E-1,5E-1,5E-1,2.2706896E-1,6.106379E-1,5E-1,5E-1,5E-1,5E-1,5E-1,5E-1,1.620862E-1,5E-1,5E-1,5E-1,5E-1,5E-1,5E-1,5E-1,5E-1,5E-1,5E-1,5E-1,5E-1,3.242583E-1,-1.6233423E-1,1.121733E-1,-1.0424883E0,1.9388463E-1,-4.9080163E-1,-1.4678398E0,-1.367049E-1,-1.0865945E0,-1.7248386E-1,-1.1263708E-1,1.0776179E-1,-4.2481714E-1,-2.4696229E0,1.1595219E0,1.7095059E0,-2.515238E-1,7.336585E-2,-6.7604834E-1,6.727864E-1,-1.407304E0,-8.5360557E-1,-4.5637608E0,-2.6705425E0,-1.5713848E0,-9.2156786E-1,-3.9669856E-1,-1.067048E0,6.765414E-1,2.6077379E-2,2.6888567E-1,-5.842999E-1],"split_indices":[102,85,2,62,52,41,52,84,2,58,0,0,7,58,92,69,51,41,0,48,98,2,28,71,52,12,97,48,67,86,15,0,0,0,0,0,0,0,0,0,0,0,0,0,0,0,0,0,0,0,0,0,0,0,0,0,0,0,0,0,0,0,0],"split_type":[0,0,0,0,0,0,0,0,0,0,0,0,0,0,0,0,0,0,0,0,0,0,0,0,0,0,0,0,0,0,0,0,0,0,0,0,0,0,0,0,0,0,0,0,0,0,0,0,0,0,0,0,0,0,0,0,0,0,0,0,0,0,0],"sum_hessian":[3.867189E6,3.786062E6,8.1127E4,3.480505E6,3.05557E5,4.7772E4,3.3355E4,3.079911E6,4.00594E5,2.97312E5,8.245E3,4.5882E4,1.89E3,3.1575E4,1.78E3,2.366795E6,7.13116E5,1.86009E5,2.14585E5,1.16951E5,1.80361E5,6.3E1,8.182E3,4.0187E4,5.695E3,1.82E3,7E1,1.5316E4,1.6259E4,1.454E3,3.26E2,2.266547E6,1.00248E5,6.99866E5,1.325E4,1.73195E5,1.2814E4,7.176E3,2.07409E5,2.3843E4,9.3108E4,7.4711E4,1.0565E5,4.4E1,1.9E1,7.004E3,1.178E3,2.7015E4,1.3172E4,5.419E3,2.76E2,1.037E3,7.83E2,4.2E1,2.8E1,4.703E3,1.0613E4,1.4004E4,2.255E3,1.228E3,2.26E2,1.96E2,1.3E2],"tree_param":{"num_deleted":"0","num_feature":"103","num_nodes":"63","size_leaf_vector":"0"}},{"base_weights":[7.3107475E-1,8.2751817E-1,-1.1145364E0,9.036838E-1,-1.4122549E0,-1.4237267E0,1.9528514E-1,1.007364E0,-7.643497E-1,-9.6611744E-1,-4.2476616E0,-3.4890764E0,-1.2196195E0,6.244251E-2,5.8215523E0,9.67278E-1,5.177516E0,-3.9177975E-1,-3.2475994E0,-8.514718E-1,-9.752793E0,-4.7959595E0,-2.0214362E0,-2.3205018E0,-8.06713E0,-1.3790233E0,1.0796279E0,1.8407707E-1,-4.4087505E0,6.649608E0,4.0591874E0,6.6154325E-1,1.5162821E0,2.3837519E0,5.5154834E0,-8.563785E-1,8.6934876E-1,-3.9580643E0,-1.617964E0,-1.7676456E0,2.294677E-2,-6.853117E0,-1.7235014E1,-5.5575128E0,-3.5451176E0,-8.832612E-1,-3.4923277E0,-2.606234E0,1.1418719E1,-1.0400494E1,-9.019465E-1,-1.1996429E0,-3.4633036E0,-1.9732299E0,2.4746604E0,-3.1229722E-1,1.1309295E0,-5.1060514E0,1.7888592E1,6.8760095E0,-1.6758873E0,5.9240465E0,2.4204369E0],"categories":[],"categories_nodes":[],"categories_segments":[],"categories_sizes":[],"default_left":[1,1,1,1,1,1,1,1,1,1,1,1,1,1,1,1,1,1,1,1,1,1,1,1,1,1,1,1,1,1,1,0,0,0,0,0,0,0,0,0,0,0,0,0,0,0,0,0,0,0,0,0,0,0,0,0,0,0,0,0,0,0,0],"id":20,"left_children":[1,3,5,7,9,11,13,15,17,19,21,23,25,27,29,31,33,35,37,39,41,43,45,47,49,51,53,55,57,59,61,-1,-1,-1,-1,-1,-1,-1,-1,-1,-1,-1,-1,-1,-1,-1,-1,-1,-1,-1,-1,-1,-1,-1,-1,-1,-1,-1,-1,-1,-1,-1,-1],"loss_changes":[6.8834925E5,6.2695775E5,7.777625E4,6.14685E5,1.5289038E5,6.5492844E4,2.7412322E4,5.5937525E5,1.9243331E5,1.0519569E5,2.0047781E4,7.4734E4,5.1825484E4,1.94881E4,1.2076074E3,5.56324E5,3.0069062E4,1.0597118E5,3.1410469E4,8.2589055E4,2.906304E4,1.2539125E4,5.436171E3,4.373502E4,4.748922E4,4.943461E4,3.904989E4,1.6395596E4,1.4846355E4,1.093457E3,8.1995996E2,0E0,0E0,0E0,0E0,0E0,0E0,0E0,0E0,0E0,0E0,0E0,0E0,0E0,0E0,0E0,0E0,0E0,0E0,0E0,0E0,0E0,0E0,0E0,0E0,0E0,0E0,0E0,0E0,0E0,0E0,0E0,0E0],"parents":[2147483647,0,0,1,1,2,2,3,3,4,4,5,5,6,6,7,7,8,8,9,9,10,10,11,11,12,12,13,13,14,14,15,15,16,16,17,17,18,18,19,19,20,20,21,21,22,22,23,23,24,24,25,25,26,26,27,27,28,28,29,29,30,30],"right_children":[2,4,6,8,10,12,14,16,18,20,22,24,26,28,30,32,34,36,38,40,42,44,46,48,50,52,54,56,58,60,62,-1,-1,-1,-1,-1,-1,-1,-1,-1,-1,-1,-1,-1,-1,-1,-1,-1,-1,-1,-1,-1,-1,-1,-1,-1,-1,-1,-1,-1,-1,-1,-1],"split_conditions":[5E-1,5E-1,5E-1,5E-1,5E-1,5E-1,5E-1,5E-1,5E-1,5E-1,5E-1,5E-1,5E-1,5E-1,9.396552E-1,5E-1,5E-1,5E-1,5E-1,5E-1,5E-1,5E-1,5E-1,5E-1,5E-1,5E-1,5E-1,5E-1,5E-1,5E-1,5E-1,1.3230865E-1,3.0325642E-1,4.7675037E-1,1.1030967E0,-1.712757E-1,1.7386976E-1,-7.9161286E-1,-3.235928E-1,-3.5352913E-1,4.589354E-3,-1.3706235E0,-3.447003E0,-1.1115025E0,-7.0902354E-1,-1.7665224E-1,-6.984655E-1,-5.2124685E-1,2.2837439E0,-2.0800989E0,-1.803893E-1,-2.3992859E-1,-6.9266075E-1,-3.94646E-1,4.949321E-1,-6.2459446E-2,2.261859E-1,-1.0212103E0,3.5777185E0,1.375202E0,-3.3517748E-1,1.1848093E0,4.8408738E-1],"split_indices":[66,92,24,91,6,21,52,4,6,41,27,62,87,51,0,3,83,27,58,3,7,3,21,40,12,41,83,3,72,94,85,0,0,0,0,0,0,0,0,0,0,0,0,0,0,0,0,0,0,0,0,0,0,0,0,0,0,0,0,0,0,0,0],"split_type":[0,0,0,0,0,0,0,0,0,0,0,0,0,0,0,0,0,0,0,0,0,0,0,0,0,0,0,0,0,0,0,0,0,0,0,0,0,0,0,0,0,0,0,0,0,0,0,0,0,0,0,0,0,0,0,0,0,0,0,0,0,0,0],"sum_hessian":[3.867189E6,3.675143E6,1.92046E5,3.554277E6,1.20866E5,1.5537E5,3.6676E4,3.346282E6,2.07995E5,1.04435E5,1.6431E4,1.3972E4,1.41398E5,3.5831E4,8.45E2,3.314423E6,3.1859E4,1.80861E5,2.7134E4,1.03091E5,1.344E3,1.3183E4,3.248E3,1.1132E4,2.84E3,1.32231E5,9.167E3,3.4883E4,9.48E2,5.73E2,2.72E2,2.128876E6,1.185547E6,3.439E3,2.842E4,1.3217E5,4.8691E4,1.8895E4,8.239E3,5.0343E4,5.2748E4,9.7E2,3.74E2,8.192E3,4.991E3,1.832E3,1.416E3,1.0906E4,2.26E2,2.142E3,6.98E2,1.21754E5,1.0477E4,2.875E3,6.292E3,2.2886E4,1.1997E4,9.2E2,2.8E1,5.58E2,1.5E1,1.26E2,1.46E2],"tree_param":{"num_deleted":"0","num_feature":"103","num_nodes":"63","size_leaf_vector":"0"}},{"base_weights":[5.8485943E-1,6.095299E-1,-5.811235E0,1.0931379E0,3.1190953E-1,-2.2351837E0,-6.7323747E0,1.2538611E0,-8.219539E-1,4.0741518E-1,-4.2737136E0,-4.181314E0,-1.5814689E-1,-4.1608243E0,-8.308087E0,1.1509538E0,3.7500021E0,2.547017E-1,-6.6670966E0,2.8039497E-1,2.4574225E0,-3.9299517E0,-1.6455393E1,-5.046743E0,3.6507168E0,-6.7051344E0,4.37591E-1,-5.1446295E0,-2.6356037E0,-8.6895075E0,2.5208435E0,1.2064666E0,-2.177711E0,2.9435074E0,5.75702E0,-5.34917E-1,1.9048153E0,-9.211887E0,-3.9764185E0,3.7899375E-1,-2.3444612E0,3.0489016E0,1.5028555E0,-6.1595163E0,-3.09337E0,-1.5541216E1,-2.2587324E1,-2.9274082E0,-6.9898076E0,4.6987495E0,-6.583911E0,-5.6798267E0,-1.9061274E1,2.7786334E0,-1.1178832E0,-7.102032E0,-3.3192496E0,-4.786198E0,-1.8569665E0,-7.9362497E0,-1.3019454E1,8.2651005E0,-8.762241E-1],"categories":[],"categories_nodes":[],"categories_segments":[],"categories_sizes":[],"default_left":[1,1,1,1,1,1,1,1,1,1,1,1,1,1,1,1,1,1,1,1,1,1,1,1,1,1,1,1,1,1,1,0,0,0,0,0,0,0,0,0,0,0,0,0,0,0,0,0,0,0,0,0,0,0,0,0,0,0,0,0,0,0,0],"id":21,"left_children":[1,3,5,7,9,11,13,15,17,19,21,23,25,27,29,31,33,35,37,39,41,43,45,47,49,51,53,55,57,59,61,-1,-1,-1,-1,-1,-1,-1,-1,-1,-1,-1,-1,-1,-1,-1,-1,-1,-1,-1,-1,-1,-1,-1,-1,-1,-1,-1,-1,-1,-1,-1,-1],"loss_changes":[6.102264E5,5.544719E5,4.8931094E4,4.5172862E5,1.0444013E6,1.230779E4,4.7840125E4,3.47792E5,7.1511125E5,6.0829625E5,2.0367869E5,1.0673541E4,5.751959E3,6.7252734E3,3.0276844E4,2.4028788E5,8.675719E4,1.250305E5,1.2098781E5,5.693205E5,7.695119E4,8.824281E4,7.1325625E3,5.8106367E3,1.7149536E3,1.4500029E3,4.9263213E3,9.727156E3,2.9433154E3,2.2975562E4,4.8856494E3,0E0,0E0,0E0,0E0,0E0,0E0,0E0,0E0,0E0,0E0,0E0,0E0,0E0,0E0,0E0,0E0,0E0,0E0,0E0,0E0,0E0,0E0,0E0,0E0,0E0,0E0,0E0,0E0,0E0,0E0,0E0,0E0],"parents":[2147483647,0,0,1,1,2,2,3,3,4,4,5,5,6,6,7,7,8,8,9,9,10,10,11,11,12,12,13,13,14,14,15,15,16,16,17,17,18,18,19,19,20,20,21,21,22,22,23,23,24,24,25,25,26,26,27,27,28,28,29,29,30,30],"right_children":[2,4,6,8,10,12,14,16,18,20,22,24,26,28,30,32,34,36,38,40,42,44,46,48,50,52,54,56,58,60,62,-1,-1,-1,-1,-1,-1,-1,-1,-1,-1,-1,-1,-1,-1,-1,-1,-1,-1,-1,-1,-1,-1,-1,-1,-1,-1,-1,-1,-1,-1,-1,-1],"split_conditions":[5E-1,2.4499828E-1,1.3794827E-1,5E-1,5E-1,5E-1,5E-1,5E-1,5E-1,5E-1,5E-1,5E-1,5E-1,5E-1,5E-1,5E-1,5E-1,5E-1,5E-1,5E-1,5E-1,5E-1,5E-1,1.0898276E-1,5E-1,1.3617241E-1,1.0524138E-1,5E-1,5E-1,5E-1,2.637931E-1,2.4129331E-1,-4.355422E-1,5.887015E-1,1.151404E0,-1.069834E-1,3.8096306E-1,-1.8423775E0,-7.9528373E-1,7.579875E-2,-4.6889225E-1,6.097803E-1,3.005711E-1,-1.2319033E0,-6.18674E-1,-3.1082432E0,-4.517465E0,-5.8548164E-1,-1.3979615E0,9.397499E-1,-1.3167822E0,-1.1359653E0,-3.8122547E0,5.557267E-1,-2.2357665E-1,-1.4204065E0,-6.6384995E-1,-9.572396E-1,-3.713933E-1,-1.58725E0,-2.603891E0,1.6530201E0,-1.7524482E-1],"split_indices":[45,0,0,51,41,3,75,40,7,68,7,4,83,15,11,42,12,24,24,49,27,75,89,0,23,0,0,3,7,2,0,0,0,0,0,0,0,0,0,0,0,0,0,0,0,0,0,0,0,0,0,0,0,0,0,0,0,0,0,0,0,0,0],"split_type":[0,0,0,0,0,0,0,0,0,0,0,0,0,0,0,0,0,0,0,0,0,0,0,0,0,0,0,0,0,0,0,0,0,0,0,0,0,0,0,0,0,0,0,0,0,0,0,0,0,0,0,0,0,0,0,0,0,0,0,0,0,0,0],"sum_hessian":[3.867189E6,3.852331E6,1.4858E4,1.467601E6,2.38473E6,3.044E3,1.1814E4,1.35397E6,1.13631E5,2.336077E6,4.8653E4,1.571E3,1.473E3,4.49E3,7.324E3,1.300362E6,5.3608E4,9.5957E4,1.7674E4,2.199778E6,1.36299E5,4.7319E4,1.334E3,1.415E3,1.56E2,1.22E2,1.351E3,2.728E3,1.762E3,7.075E3,2.49E2,1.279032E6,2.133E4,3.8243E4,1.5365E4,6.4901E4,3.1056E4,9.082E3,8.592E3,2.120139E6,7.9639E4,8.4153E4,5.2146E4,1.2909E4,3.441E4,1.164E3,1.7E2,6.78E2,7.37E2,1.42E2,1.4E1,1.14E2,8E0,5.39E2,8.12E2,1.315E3,1.413E3,4.67E2,1.295E3,6.029E3,1.046E3,9.2E1,1.57E2],"tree_param":{"num_deleted":"0","num_feature":"103","num_nodes":"63","size_leaf_vector":"0"}},{"base_weights":[4.6788156E-1,6.0588473E-1,-5.624277E-1,7.2830087E-1,-6.2627256E-1,-6.823955E-1,1.9949203E0,8.3815897E-1,-8.381785E-1,-1.0715561E-1,-1.3477815E0,-5.4820156E-1,-2.5843875E0,3.695195E0,1.1258719E0,1.1438888E0,3.017187E-1,-1.2087009E0,1.24858715E-1,-5.317433E-1,6.4357406E-1,-1.4719195E0,3.1809947E0,-4.3189684E-1,-2.7480645E0,-2.3521733E0,-5.9623413E0,3.4476638E0,6.644322E0,7.961785E-1,3.324808E0,1.2260243E0,-5.7745636E-1,1.0904119E0,1.4541708E-2,-2.8816385E0,-9.8464435E-1,-2.511763E-1,8.957024E-1,-6.706492E-1,2.07668E0,1.0026824E0,-2.0575027E0,-1.3756142E0,-6.774077E0,7.3613286E-1,4.001674E0,-2.7325737E-1,-2.2039342E0,-2.1961887E0,-5.127782E0,-1.8882568E0,-3.7329478E0,-5.3667827E0,-1.4813515E1,2.6694453E0,4.7212076E0,7.4517303E0,3.057577E0,4.105831E0,6.728705E-1,3.7577794E0,-2.75396E0],"categories":[],"categories_nodes":[],"categories_segments":[],"categories_sizes":[],"default_left":[1,1,1,1,1,1,1,1,1,1,1,1,1,1,1,1,1,1,1,1,1,1,1,1,1,1,1,1,1,1,1,0,0,0,0,0,0,0,0,0,0,0,0,0,0,0,0,0,0,0,0,0,0,0,0,0,0,0,0,0,0,0,0],"id":22,"left_children":[1,3,5,7,9,11,13,15,17,19,21,23,25,27,29,31,33,35,37,39,41,43,45,47,49,51,53,55,57,59,61,-1,-1,-1,-1,-1,-1,-1,-1,-1,-1,-1,-1,-1,-1,-1,-1,-1,-1,-1,-1,-1,-1,-1,-1,-1,-1,-1,-1,-1,-1,-1,-1],"loss_changes":[5.4986044E5,5.1441E5,1.4014734E5,5.3385725E5,1.15437664E5,1.11366125E5,3.0241266E4,4.7543388E5,7.254341E4,5.7134465E4,7.250678E4,1.0427919E5,2.2542438E4,5.0308906E3,9.818582E3,2.61067E5,2.383567E5,5.5028203E4,1.6373785E4,4.148475E4,6.2811137E4,6.4086E4,6.901242E3,1.0882242E5,2.6866922E4,1.7229234E4,9.667305E3,6.3195E3,1.5265586E3,4.805551E3,4.6583438E3,0E0,0E0,0E0,0E0,0E0,0E0,0E0,0E0,0E0,0E0,0E0,0E0,0E0,0E0,0E0,0E0,0E0,0E0,0E0,0E0,0E0,0E0,0E0,0E0,0E0,0E0,0E0,0E0,0E0,0E0,0E0,0E0],"parents":[2147483647,0,0,1,1,2,2,3,3,4,4,5,5,6,6,7,7,8,8,9,9,10,10,11,11,12,12,13,13,14,14,15,15,16,16,17,17,18,18,19,19,20,20,21,21,22,22,23,23,24,24,25,25,26,26,27,27,28,28,29,29,30,30],"right_children":[2,4,6,8,10,12,14,16,18,20,22,24,26,28,30,32,34,36,38,40,42,44,46,48,50,52,54,56,58,60,62,-1,-1,-1,-1,-1,-1,-1,-1,-1,-1,-1,-1,-1,-1,-1,-1,-1,-1,-1,-1,-1,-1,-1,-1,-1,-1,-1,-1,-1,-1,-1,-1],"split_conditions":[5E-1,5E-1,5E-1,5E-1,3.0356896E-1,5E-1,5E-1,5E-1,5E-1,5E-1,5E-1,5E-1,5E-1,5E-1,5E-1,5E-1,2.238569E-1,5E-1,5E-1,5E-1,5E-1,5E-1,5E-1,5E-1,4.665776E-1,5E-1,5E-1,3.4862068E-1,5E-1,5E-1,5E-1,2.4520485E-1,-1.1549127E-1,2.1808238E-1,2.9083416E-3,-5.7632774E-1,-1.9692887E-1,-5.023526E-2,1.791405E-1,-1.3412984E-1,4.1533598E-1,2.0053649E-1,-4.1150054E-1,-2.7512285E-1,-1.3548154E0,1.4722657E-1,8.003349E-1,-5.4651476E-2,-4.4078684E-1,-4.3923774E-1,-1.0255564E0,-3.7765136E-1,-7.465896E-1,-1.0733565E0,-2.962703E0,5.3388906E-1,9.442415E-1,1.4903461E0,6.115154E-1,8.211662E-1,1.345741E-1,7.5155586E-1,-5.50792E-1],"split_indices":[35,33,11,31,0,91,58,26,24,67,68,92,41,41,61,51,0,21,3,68,41,41,7,69,0,2,7,0,60,75,6,0,0,0,0,0,0,0,0,0,0,0,0,0,0,0,0,0,0,0,0,0,0,0,0,0,0,0,0,0,0,0,0],"split_type":[0,0,0,0,0,0,0,0,0,0,0,0,0,0,0,0,0,0,0,0,0,0,0,0,0,0,0,0,0,0,0,0,0,0,0,0,0,0,0,0,0,0,0,0,0,0,0,0,0,0,0,0,0,0,0,0,0,0,0,0,0,0,0],"sum_hessian":[3.867189E6,3.41039E6,4.56799E5,3.102185E6,3.08205E5,4.36331E5,2.0468E4,2.898885E6,2.033E5,1.79243E5,1.28962E5,4.07576E5,2.8755E4,6.922E3,1.3546E4,1.846513E6,1.052372E6,1.46814E5,5.6486E4,1.14491E5,6.4752E4,1.25522E5,3.44E3,3.87111E5,2.0465E4,2.6907E4,1.848E3,6.388E3,5.34E2,1.1781E4,1.765E3,1.762418E6,8.4095E4,2.80904E5,7.71468E5,1.7339E4,1.29475E5,3.7966E4,1.852E4,1.08703E5,5.788E3,5.7154E4,7.598E3,1.23284E5,2.238E3,8.65E2,2.575E3,3.55304E5,3.1807E4,1.6614E4,3.851E3,2.0142E4,6.765E3,1.733E3,1.15E2,3.967E3,2.421E3,4.35E2,9.9E1,4.22E2,1.1359E4,1.648E3,1.17E2],"tree_param":{"num_deleted":"0","num_feature":"103","num_nodes":"63","size_leaf_vector":"0"}},{"base_weights":[3.7430602E-1,4.0242028E-1,-4.4750433E0,1.9262412E-1,9.674948E-1,-3.4877405E0,-7.9629235E0,2.9173705E-1,-1.3741053E0,8.815845E-1,4.818034E0,-2.6407092E0,-4.6182027E0,-8.279717E0,5.578318E0,3.699039E-1,-1.7641886E0,-1.098038E0,-1.2388445E1,6.892083E-1,1.5399141E0,3.8920515E0,5.57824E0,-2.2852707E0,-5.0771976E0,-4.0499005E0,-6.9675035E0,-6.211659E0,-1.00370865E1,4.5346823E0,1.1621943E1,4.9382898E-1,-9.679337E-1,-1.0882796E0,-5.8400784E0,5.143997E-1,-2.8949142E0,-1.3820884E1,-9.911178E0,6.546755E-1,3.8410661E0,-3.1652907E-1,1.8154172E0,4.7970257E0,2.6706994E0,3.8938158E0,6.1037474E0,-3.6675277E0,-1.7181536E0,-4.326437E0,-7.3835073E0,-3.081556E0,-5.0473895E0,-6.261906E0,-1.1496149E1,-6.721805E0,-4.5581487E-1,-1.0323915E1,-1.1174804E0,5.5675893E0,-2.0604444E0,1.3563104E1,-8.747726E0],"categories":[],"categories_nodes":[],"categories_segments":[],"categories_sizes":[],"default_left":[1,1,1,1,1,1,1,1,1,1,1,1,1,1,1,1,1,1,1,1,1,1,1,1,1,1,1,1,1,1,1,0,0,0,0,0,0,0,0,0,0,0,0,0,0,0,0,0,0,0,0,0,0,0,0,0,0,0,0,0,0,0,0],"id":23,"left_children":[1,3,5,7,9,11,13,15,17,19,21,23,25,27,29,31,33,35,37,39,41,43,45,47,49,51,53,55,57,59,61,-1,-1,-1,-1,-1,-1,-1,-1,-1,-1,-1,-1,-1,-1,-1,-1,-1,-1,-1,-1,-1,-1,-1,-1,-1,-1,-1,-1,-1,-1,-1,-1],"loss_changes":[5.2723825E5,4.5581444E5,7.6733375E4,4.3539794E5,3.4436138E5,1.6625031E4,2.1139062E4,4.23792E5,5.072482E5,1.2896206E5,1.5971E4,8.59232E3,9.906344E3,1.7400688E4,6.600283E2,4.2119134E5,2.6609238E5,4.7153375E5,1.43374375E4,8.576719E4,1.177745E5,1.1312016E4,1.10179375E4,6.7916953E3,2.1566543E3,5.774133E3,4.554953E3,6.486203E3,6.6300312E3,6.7906274E2,7.512988E2,0E0,0E0,0E0,0E0,0E0,0E0,0E0,0E0,0E0,0E0,0E0,0E0,0E0,0E0,0E0,0E0,0E0,0E0,0E0,0E0,0E0,0E0,0E0,0E0,0E0,0E0,0E0,0E0,0E0,0E0,0E0,0E0],"parents":[2147483647,0,0,1,1,2,2,3,3,4,4,5,5,6,6,7,7,8,8,9,9,10,10,11,11,12,12,13,13,14,14,15,15,16,16,17,17,18,18,19,19,20,20,21,21,22,22,23,23,24,24,25,25,26,26,27,27,28,28,29,29,30,30],"right_children":[2,4,6,8,10,12,14,16,18,20,22,24,26,28,30,32,34,36,38,40,42,44,46,48,50,52,54,56,58,60,62,-1,-1,-1,-1,-1,-1,-1,-1,-1,-1,-1,-1,-1,-1,-1,-1,-1,-1,-1,-1,-1,-1,-1,-1,-1,-1,-1,-1,-1,-1,-1,-1],"split_conditions":[5E-1,5E-1,5E-1,5E-1,5E-1,5E-1,5E-1,5E-1,5E-1,5E-1,5E-1,3.9877588E-1,3.4515518E-1,5E-1,5E-1,5E-1,5E-1,1.8967241E-1,5E-1,5E-1,5E-1,5E-1,5E-1,5E-1,5.741379E-1,5E-1,5E-1,5E-1,5E-1,5E-1,5E-1,9.87658E-2,-1.9358675E-1,-2.1765593E-1,-1.1680157E0,1.0287994E-1,-5.7898283E-1,-2.7641768E0,-1.9822356E0,1.309351E-1,7.682132E-1,-6.330582E-2,3.6308345E-1,9.594051E-1,5.341399E-1,7.787632E-1,1.2207495E0,-7.3350555E-1,-3.4363073E-1,-8.652874E-1,-1.4767015E0,-6.1631125E-1,-1.009478E0,-1.2523812E0,-2.2992299E0,-1.3443611E0,-9.116297E-2,-2.0647829E0,-2.2349608E-1,1.1135179E0,-4.1208887E-1,2.7126207E0,-1.7495453E0],"split_indices":[44,24,2,41,52,64,11,51,7,95,98,0,0,64,101,85,7,0,94,4,83,64,100,21,0,1,74,68,13,66,95,0,0,0,0,0,0,0,0,0,0,0,0,0,0,0,0,0,0,0,0,0,0,0,0,0,0,0,0,0,0,0,0],"split_type":[0,0,0,0,0,0,0,0,0,0,0,0,0,0,0,0,0,0,0,0,0,0,0,0,0,0,0,0,0,0,0,0,0,0,0,0,0,0,0,0,0,0,0,0,0,0,0,0,0,0,0,0,0,0,0,0,0,0,0,0,0,0,0],"sum_hessian":[3.867189E6,3.844899E6,2.229E4,2.803894E6,1.041005E6,1.7374E4,4.916E3,2.637071E6,1.66823E5,1.018287E6,2.2718E4,9.934E3,7.44E3,4.804E3,1.12E2,2.540482E6,9.6589E4,1.62745E5,4.078E3,7.88016E5,2.30271E5,1.0245E4,1.2473E4,8.671E3,1.263E3,5.993E3,1.447E3,2.209E3,2.595E3,9.7E1,1.5E1,2.325106E6,2.15376E5,8.2851E4,1.3738E4,8.5775E4,7.697E4,2.581E3,1.497E3,7.79477E5,8.539E3,2.9757E4,2.00514E5,5.883E3,4.362E3,2.968E3,9.505E3,2.521E3,6.15E3,9.55E2,3.08E2,3.043E3,2.95E3,1.254E3,1.93E2,2.029E3,1.8E2,2.514E3,8.1E1,8.4E1,1.3E1,1.4E1,1E0],"tree_param":{"num_deleted":"0","num_feature":"103","num_nodes":"63","size_leaf_vector":"0"}},{"base_weights":[2.994423E-1,3.7161964E-1,-1.2360704E0,4.034203E-1,-3.117833E0,-2.2059836E0,4.6371534E-1,5.193087E-1,-4.94957E-1,-3.2905438E0,6.3328323E0,-3.2082E0,-8.639794E-1,1.5408677E-1,5.043994E0,6.324895E-1,-4.8726246E-1,-6.5790975E-1,1.6657845E0,-1.1049585E0,-4.0065384E0,1.4250819E1,5.308855E0,-3.9068885E0,-2.0052712E0,-7.139946E-1,-6.272987E0,-1.04838625E-1,4.233917E0,3.666856E0,9.884753E0,6.5080905E-1,-5.6038256E0,-3.6552823E-1,-4.56281E0,-5.189906E-1,-3.4730008E0,2.4279008E0,-9.806232E-3,-2.2348814E0,-6.389989E-2,-3.5183334E0,-7.988615E0,1.0957122E1,2.21684E1,6.057851E0,1.0013081E0,-4.1023364E0,1.8914453E0,-9.5042366E-1,-2.8400552E0,-2.745079E-1,-1.7657204E0,-4.719634E0,-8.63212E0,-2.6434305E0,3.2099223E-1,5.1038294E0,-2.9602494E0,5.1884174E0,1.0784731E0,1.1728499E1,-4.314998E-1],"categories":[],"categories_nodes":[],"categories_segments":[],"categories_sizes":[],"default_left":[1,1,1,1,1,1,1,1,1,1,1,1,1,1,1,1,1,1,1,1,1,1,1,1,1,1,1,1,1,1,1,0,0,0,0,0,0,0,0,0,0,0,0,0,0,0,0,0,0,0,0,0,0,0,0,0,0,0,0,0,0,0,0],"id":24,"left_children":[1,3,5,7,9,11,13,15,17,19,21,23,25,27,29,31,33,35,37,39,41,43,45,47,49,51,53,55,57,59,61,-1,-1,-1,-1,-1,-1,-1,-1,-1,-1,-1,-1,-1,-1,-1,-1,-1,-1,-1,-1,-1,-1,-1,-1,-1,-1,-1,-1,-1,-1,-1,-1],"loss_changes":[4.2859825E5,4.098655E5,2.8623538E5,3.810708E5,5.4467188E4,1.4867388E5,8.9454086E4,3.6934456E5,1.4725272E5,5.1259062E4,4.7809395E3,5.3178938E4,3.8336895E4,6.2415105E4,2.6589328E4,3.3295375E5,1.6257734E5,1.5207914E5,3.745172E4,9.510371E3,4.7941844E4,1.5304102E3,1.7103428E3,4.5372688E4,2.047318E4,2.1255598E4,4.631586E3,6.0060727E4,2.2081852E4,1.2246719E4,1.6819219E4,0E0,0E0,0E0,0E0,0E0,0E0,0E0,0E0,0E0,0E0,0E0,0E0,0E0,0E0,0E0,0E0,0E0,0E0,0E0,0E0,0E0,0E0,0E0,0E0,0E0,0E0,0E0,0E0,0E0,0E0,0E0,0E0],"parents":[2147483647,0,0,1,1,2,2,3,3,4,4,5,5,6,6,7,7,8,8,9,9,10,10,11,11,12,12,13,13,14,14,15,15,16,16,17,17,18,18,19,19,20,20,21,21,22,22,23,23,24,24,25,25,26,26,27,27,28,28,29,29,30,30],"right_children":[2,4,6,8,10,12,14,16,18,20,22,24,26,28,30,32,34,36,38,40,42,44,46,48,50,52,54,56,58,60,62,-1,-1,-1,-1,-1,-1,-1,-1,-1,-1,-1,-1,-1,-1,-1,-1,-1,-1,-1,-1,-1,-1,-1,-1,-1,-1,-1,-1,-1,-1,-1,-1],"split_conditions":[5E-1,5E-1,5E-1,5E-1,5E-1,5E-1,5E-1,5E-1,5E-1,5E-1,5E-1,5E-1,5E-1,5E-1,5E-1,5E-1,5E-1,5E-1,5E-1,5E-1,5E-1,5E-1,5E-1,5E-1,5E-1,3.1312066E-1,2.4515519E-1,5E-1,5E-1,5E-1,1.9273794E-1,1.301618E-1,-1.1207651E0,-7.310565E-2,-9.12562E-1,-1.03798114E-1,-6.9460016E-1,4.8558018E-1,-1.9612464E-3,-4.4697627E-1,-1.2779978E-2,-7.036667E-1,-1.597723E0,2.1914244E0,4.43368E0,1.2115701E0,2.0026162E-1,-8.204673E-1,3.7828907E-1,-1.9008474E-1,-5.6801105E-1,-5.490158E-2,-3.5314408E-1,-9.439268E-1,-1.7264241E0,-5.286861E-1,6.419845E-2,1.0207659E0,-5.920499E-1,1.0376835E0,2.1569462E-1,2.3457E0,-8.629996E-2],"split_indices":[74,42,61,62,11,3,40,71,68,75,75,58,51,101,2,45,51,41,88,3,2,95,84,5,12,0,0,83,41,27,0,0,0,0,0,0,0,0,0,0,0,0,0,0,0,0,0,0,0,0,0,0,0,0,0,0,0,0,0,0,0,0,0],"split_type":[0,0,0,0,0,0,0,0,0,0,0,0,0,0,0,0,0,0,0,0,0,0,0,0,0,0,0,0,0,0,0,0,0,0,0,0,0,0,0,0,0,0,0,0,0,0,0,0,0,0,0,0,0,0,0,0,0,0,0,0,0,0,0],"sum_hessian":[3.867189E6,3.693572E6,1.73617E5,3.660216E6,3.3356E4,1.10541E5,6.3076E4,3.242006E6,4.1821E5,3.2758E4,5.98E2,6.3281E4,4.726E4,5.9083E4,3.993E3,2.914315E6,3.27691E5,3.88883E5,2.9327E4,8.084E3,2.4674E4,6.7E1,5.31E2,4.0029E4,2.3252E4,4.5986E4,1.274E3,5.5558E4,3.525E3,3.11E3,8.83E2,2.90578E6,8.535E3,3.18188E5,9.503E3,3.70596E5,1.8287E4,2.0158E4,9.169E3,3.876E3,4.208E3,2.1981E4,2.693E3,4.9E1,1.8E1,4.52E2,7.9E1,3.8724E4,1.305E3,1.0273E4,1.2979E4,3.2434E4,1.3552E4,7.7E2,5.04E2,7.98E3,4.7578E4,3.145E3,3.8E2,1.958E3,1.152E3,7.49E2,1.34E2],"tree_param":{"num_deleted":"0","num_feature":"103","num_nodes":"63","size_leaf_vector":"0"}},{"base_weights":[2.3955312E-1,2.9528815E-1,-1.3840781E0,3.6980635E-1,-9.103934E-1,-6.5186775E-1,-2.169305E0,4.620596E-1,-6.029256E-1,-4.6788615E-1,-2.0723524E0,-2.6043907E-1,-2.3395228E0,-3.4466643E0,-1.2110258E0,5.3500164E-1,-1.0012795E0,-7.196717E-1,1.9582394E0,-3.2124892E-1,-3.801869E0,-2.9219258E0,-1.0910273E0,3.900143E-1,-1.3355323E0,-3.9594486E0,-6.030023E-1,-4.0753536E0,-2.0135174E0,-1.0981326E0,-4.9944625E0,5.787323E-1,-1.7795885E0,-7.635108E-1,-2.3429885E0,-8.542119E-1,1.3272903E0,2.4704833E0,-1.6669109E0,-1.6434762E-1,-3.565775E0,-3.4481428E0,-1.1764787E1,-3.190051E0,1.18530236E-1,-1.3339678E0,8.422248E-1,2.176106E0,-1.5984038E-1,-2.484249E0,-2.1349853E-1,-5.131674E0,-2.9257853E0,-2.0555785E0,4.9511608E-2,-4.3934155E0,-4.3877533E-1,-1.1871789E0,-4.1299195E0,-7.1973926E-1,-2.3812902E0,-4.5915976E0,-1.04250965E1],"categories":[],"categories_nodes":[],"categories_segments":[],"categories_sizes":[],"default_left":[1,1,1,1,1,1,1,1,1,1,1,1,1,1,1,1,1,1,1,1,1,1,1,1,1,1,1,1,1,1,1,0,0,0,0,0,0,0,0,0,0,0,0,0,0,0,0,0,0,0,0,0,0,0,0,0,0,0,0,0,0,0,0],"id":25,"left_children":[1,3,5,7,9,11,13,15,17,19,21,23,25,27,29,31,33,35,37,39,41,43,45,47,49,51,53,55,57,59,61,-1,-1,-1,-1,-1,-1,-1,-1,-1,-1,-1,-1,-1,-1,-1,-1,-1,-1,-1,-1,-1,-1,-1,-1,-1,-1,-1,-1,-1,-1,-1,-1],"loss_changes":[3.4995462E5,3.3591778E5,7.379072E4,3.1598584E5,1.11900016E5,4.387357E4,7.580231E4,3.4329362E5,9.120484E4,7.705259E4,5.003761E4,3.7701773E4,3.517179E4,2.3908906E4,1.5108727E4,3.1008338E5,4.8713266E4,8.034181E4,2.4697984E4,7.685478E4,1.8662258E4,2.6226125E4,1.3082711E4,3.2989766E4,2.6193773E4,7.8233906E3,5.7211807E3,2.1338438E4,1.4153906E4,1.6682352E4,2.1946387E3,0E0,0E0,0E0,0E0,0E0,0E0,0E0,0E0,0E0,0E0,0E0,0E0,0E0,0E0,0E0,0E0,0E0,0E0,0E0,0E0,0E0,0E0,0E0,0E0,0E0,0E0,0E0,0E0,0E0,0E0,0E0,0E0],"parents":[2147483647,0,0,1,1,2,2,3,3,4,4,5,5,6,6,7,7,8,8,9,9,10,10,11,11,12,12,13,13,14,14,15,15,16,16,17,17,18,18,19,19,20,20,21,21,22,22,23,23,24,24,25,25,26,26,27,27,28,28,29,29,30,30],"right_children":[2,4,6,8,10,12,14,16,18,20,22,24,26,28,30,32,34,36,38,40,42,44,46,48,50,52,54,56,58,60,62,-1,-1,-1,-1,-1,-1,-1,-1,-1,-1,-1,-1,-1,-1,-1,-1,-1,-1,-1,-1,-1,-1,-1,-1,-1,-1,-1,-1,-1,-1,-1,-1],"split_conditions":[5E-1,5E-1,5E-1,5E-1,5E-1,5E-1,5E-1,5E-1,5E-1,5E-1,5E-1,5E-1,5E-1,5E-1,5E-1,5E-1,5E-1,5E-1,5E-1,5E-1,5E-1,5E-1,5E-1,5E-1,5E-1,5E-1,5E-1,5E-1,5E-1,3.6160344E-1,5E-1,1.1574646E-1,-3.559177E-1,-1.5270217E-1,-4.685977E-1,-1.708424E-1,2.6545808E-1,4.9409667E-1,-3.333822E-1,-3.2869525E-2,-7.13155E-1,-6.8962854E-1,-2.3529575E0,-6.380102E-1,2.3706047E-2,-2.6679358E-1,1.6844496E-1,4.352212E-1,-3.1968076E-2,-4.9684983E-1,-4.2699706E-2,-1.0263348E0,-5.851571E-1,-4.111157E-1,9.902322E-3,-8.786831E-1,-8.775507E-2,-2.3743577E-1,-8.2598394E-1,-1.4394785E-1,-4.7625804E-1,-9.183195E-1,-2.0850194E0],"split_indices":[92,91,21,101,12,12,3,69,68,41,3,15,3,61,51,102,13,13,87,51,7,61,68,100,3,24,24,13,6,0,33,0,0,0,0,0,0,0,0,0,0,0,0,0,0,0,0,0,0,0,0,0,0,0,0,0,0,0,0,0,0,0,0],"split_type":[0,0,0,0,0,0,0,0,0,0,0,0,0,0,0,0,0,0,0,0,0,0,0,0,0,0,0,0,0,0,0,0,0,0,0,0,0,0,0,0,0,0,0,0,0,0,0,0,0,0,0,0,0,0,0,0,0,0,0,0,0,0,0],"sum_hessian":[3.867189E6,3.738845E6,1.28344E5,3.521214E6,2.17631E5,6.6415E4,6.1929E4,3.216193E6,3.05021E5,1.5761E5,6.0021E4,5.3912E4,1.2503E4,2.6544E4,3.5385E4,3.06349E6,1.52703E5,2.91724E5,1.3297E4,1.50971E5,6.639E3,3.2169E4,2.7852E4,3.359E4,2.0322E4,6.468E3,6.035E3,1.8449E4,8.095E3,3.4361E4,1.024E3,3.006684E6,5.6806E4,1.29717E5,2.2986E4,2.73733E5,1.7991E4,1.1651E4,1.646E3,1.44008E5,6.963E3,6.358E3,2.81E2,2.9562E4,2.607E3,2.4743E4,3.109E3,7.906E3,2.5684E4,1.0041E4,1.0281E4,3.029E3,3.439E3,1.87E3,4.165E3,1.6965E4,1.484E3,5.823E3,2.272E3,2.6537E4,7.824E3,9.55E2,6.9E1],"tree_param":{"num_deleted":"0","num_feature":"103","num_nodes":"63","size_leaf_vector":"0"}},{"base_weights":[1.9163983E-1,2.5858423E-1,-1.0894556E0,2.2944091E-1,3.299956E0,-1.4533963E0,-4.8996264E-1,3.554979E-1,-4.8166686E-1,2.8372533E0,4.9082437E0,-1.2092327E0,-2.4392126E0,-2.0726718E-1,-2.5473838E0,3.9138505E-1,-3.4454188E0,-9.9626774E-1,3.3718905E-1,2.4720607E0,5.2149787E0,3.6651676E0,6.273568E0,-1.2820195E0,2.4033983E0,-7.742371E0,-2.040596E0,1.3331677E-1,-1.5015628E0,-2.4146943E0,-1.0049405E1,4.4156283E-1,-1.8676069E0,-2.0335526E0,-1.0289104E1,-1.1897733E0,2.48233E0,5.840949E-1,-1.4367917E0,2.0847595E0,4.017202E0,4.54779E0,6.946725E0,3.8839643E0,-2.8085265E0,3.2306774E0,6.551848E0,-1.1499226E0,-3.692215E0,4.233783E0,1.7843653E-1,-1.0428219E1,-2.7588649E0,-2.46308E0,-4.0567735E-1,-6.310854E-1,5.4636127E-1,-6.942879E-1,-4.4912353E0,-2.716717E0,-9.2330194E-1,-8.220077E0,-1.8598455E1],"categories":[],"categories_nodes":[],"categories_segments":[],"categories_sizes":[],"default_left":[1,1,1,1,1,1,1,1,1,1,1,1,1,1,1,1,1,1,1,1,1,1,1,1,1,1,1,1,1,1,1,0,0,0,0,0,0,0,0,0,0,0,0,0,0,0,0,0,0,0,0,0,0,0,0,0,0,0,0,0,0,0,0],"id":26,"left_children":[1,3,5,7,9,11,13,15,17,19,21,23,25,27,29,31,33,35,37,39,41,43,45,47,49,51,53,55,57,59,61,-1,-1,-1,-1,-1,-1,-1,-1,-1,-1,-1,-1,-1,-1,-1,-1,-1,-1,-1,-1,-1,-1,-1,-1,-1,-1,-1,-1,-1,-1,-1,-1],"loss_changes":[3.3165888E5,3.2574822E5,4.1900094E4,3.2631375E5,2.5943812E4,2.8760734E4,4.2195098E4,4.2178012E5,2.309765E5,2.3510984E4,1.3201609E4,2.518864E4,5.012867E4,2.811767E4,8.699766E3,3.4721878E5,2.794341E5,2.2657994E5,9.2654484E4,1.4046484E4,4.1347812E3,5.791332E3,3.1220625E3,2.9888094E4,7.7044814E3,2.216346E4,1.5239195E4,1.5944184E4,3.2067303E4,3.877082E3,2.224252E3,0E0,0E0,0E0,0E0,0E0,0E0,0E0,0E0,0E0,0E0,0E0,0E0,0E0,0E0,0E0,0E0,0E0,0E0,0E0,0E0,0E0,0E0,0E0,0E0,0E0,0E0,0E0,0E0,0E0,0E0,0E0,0E0],"parents":[2147483647,0,0,1,1,2,2,3,3,4,4,5,5,6,6,7,7,8,8,9,9,10,10,11,11,12,12,13,13,14,14,15,15,16,16,17,17,18,18,19,19,20,20,21,21,22,22,23,23,24,24,25,25,26,26,27,27,28,28,29,29,30,30],"right_children":[2,4,6,8,10,12,14,16,18,20,22,24,26,28,30,32,34,36,38,40,42,44,46,48,50,52,54,56,58,60,62,-1,-1,-1,-1,-1,-1,-1,-1,-1,-1,-1,-1,-1,-1,-1,-1,-1,-1,-1,-1,-1,-1,-1,-1,-1,-1,-1,-1,-1,-1,-1,-1],"split_conditions":[5E-1,5E-1,5E-1,5E-1,5E-1,5E-1,3.810345E-1,5E-1,5E-1,5E-1,5E-1,5E-1,1.5E-1,5E-1,5E-1,5E-1,5E-1,5E-1,3.1037933E-1,5E-1,5E-1,5E-1,5E-1,7.5E-1,5E-1,5E-1,5E-1,5E-1,5E-1,5E-1,5E-1,8.831257E-2,-3.735214E-1,-4.0671054E-1,-2.057821E0,-2.3795466E-1,4.96466E-1,1.1681898E-1,-2.8735834E-1,4.169519E-1,8.034404E-1,9.09558E-1,1.389345E0,7.767929E-1,-5.617053E-1,6.461355E-1,1.3103696E0,-2.2998452E-1,-7.38443E-1,8.467566E-1,3.568731E-2,-2.0856438E0,-5.51773E-1,-4.92616E-1,-8.1135474E-2,-1.2621708E-1,1.0927226E-1,-1.3885759E-1,-8.9824706E-1,-5.433434E-1,-1.8466039E-1,-1.6440153E0,-3.719691E0],"split_indices":[66,4,3,6,41,62,0,41,3,87,64,11,0,61,42,51,7,5,0,51,40,7,61,0,